  -2.8626976e-01   3.2908362e-01   1.3569296e+00   9.3941725e-01   1.2886674e+00   1.8730537e+00   2.6562562e+00  -1.0560528e+00  -1.4454011e+01  -6.0534922e-01  -8.8735863e-01   1.8750149e+01   9.2250955e-02   5.1441798e-02   3.8471051e-01  -1.1644107e+00   9.6315186e-01  -3.2828210e+00   4.1923799e-01  -9.4621223e+00  -3.6145143e-01   3.0724734e-01   1.0972616e-01   6.4544457e-01  -3.3611321e-01   1.7326578e+00
   6.6760806e+01   1.7712060e+00   3.5206922e+00   5.2261854e-01  -1.0925156e+01   2.9814491e+00   5.7526057e+00   1.0512391e+00  -6.1377805e-01   5.0887824e-01   1.2194984e+00  -1.0322847e+00  -2.5507602e+01  -3.0757918e+01   1.4551421e+01   2.9825475e+00  -1.6069880e+00  -5.2624613e+00  -2.0489083e+01   4.0686227e+00  -1.5944602e+01   3.2690459e+00   1.3597836e+01  -4.8606917e+00  -3.2972442e-01  -5.2479161e+00
   3.5381311e+01   1.2912067e+00  -5.4571541e+00   8.3700107e-01   1.2796645e+01  -1.2119193e+00  -5.7453318e+00   4.3016097e-02  -1.1295584e+00  -1.2112248e+00  -1.0272256e+01   1.0013604e+00  -4.0802805e+00   5.4034830e+00  -6.8607509e+00  -4.0614179e+00   9.6079153e-01   2.0757060e+00   1.2297939e-01  -7.3235265e+00  -1.4342316e+01   2.9961705e+00   4.6778865e-01   8.2386772e-01  -1.0935697e+01   8.4498333e+00
  -3.5873134e+00   8.9829468e+00   5.5578500e+01  -4.9835877e+00  -3.5398971e+01   3.3081591e+00   5.7693257e+00  -3.4199244e+00  -1.3382432e+00   3.2078705e-01  -3.2439150e+00  -1.0878432e+01   6.7627137e-01  -5.8547297e+00  -2.8128001e+00   1.6416783e+01  -2.1804388e+00  -5.7974568e+00  -3.9090156e+00   4.4471502e+00  -2.9731451e-01   8.7893255e-01  -1.5227937e+00   4.4080044e+00  -7.0200367e+00  -8.5401487e+00
  -1.8029836e+01  -3.8864625e+00  -6.5505195e+00  -4.6027640e+00   2.2284620e+01   1.6811677e+00  -1.1029836e+01  -3.9644570e+00   1.0604300e+00   1.5839515e-01  -8.7595405e-01  -2.1554138e-01   6.4908085e+00   9.1408381e+00   1.0110810e+01  -2.0950205e+00   2.7453974e+00   8.9100975e+00  -8.4874896e+00   6.7296765e+00  -3.4392771e+00  -4.5096911e+00  -2.9479261e+00   3.2023039e+00  -1.0191130e+00  -8.5620045e-01
  -9.4730284e+00  -9.1911725e+00   1.8802348e+01   8.4603921e+00  -8.5847048e-01   1.8232273e+00   7.6915776e+00  -1.2325532e+01  -2.2083173e-01  -2.8821040e-01   1.0087252e+00   1.1215515e+01   2.5621780e+00  -2.5557480e-01  -1.9672701e-01  -6.6340372e-01  -1.3975061e+00  -7.9551321e-01  -1.0729024e+01   8.0697134e-01  -2.4314081e+01   7.0628933e+00   3.4007995e+00   1.2638361e+00   3.8387950e+00   2.7705349e+00
  -7.8401712e+00  -3.2725095e+00   7.8732916e+00  -4.1793642e-01   1.2092871e+01  -2.7471147e+01   2.6512459e+01   1.6676713e+00   1.3357822e+01  -3.5090589e-01  -1.0469891e+00  -1.7429908e+01  -3.1948586e+00  -1.4177920e+01  -5.1344415e+00  -3.3133000e+00  -5.0685646e+00  -1.4071404e+01   9.3885921e+00   2.0473656e+01   3.4275068e+00   3.9132761e+00   5.7619160e+00   2.5084195e+00   4.7304410e+00  -8.9439873e+00
  -1.3507716e+01   5.5277463e-01   1.3380600e+01   3.0723376e+00  -9.4412850e-01   7.6270002e-01   1.4483263e+01  -2.3539576e+00  -1.3796026e+00  -4.2069781e-01  -1.8317229e+00  -1.4503753e+00  -2.8073441e+00   2.4989382e+00  -6.7685348e+00  -1.0414012e+00  -1.4645151e+00  -6.0451225e+00  -4.2569956e-01  -4.7597962e+00   1.3989629e+00   2.8039456e-01   2.1080013e+00  -5.6078947e-01  -9.2910542e-01   8.1524151e+00
  -2.0240874e+00   3.4465572e+00   1.5437235e+01  -6.7398100e+00  -2.4225039e+01   9.2645949e+00  -7.0890468e+00  -3.1090425e+00  -1.1041263e+00   2.7224983e-01   2.0188670e+00  -1.3647915e+01   3.6535910e+00  -5.9396967e+00   7.9144380e+00  -4.8445047e+00  -1.7420541e+00   5.7509048e+00  -1.9098268e+00   4.2370033e+00   2.8618508e+00   2.9348515e+00  -1.0638774e+00   1.6653178e+00  -5.9072745e-01   1.4570521e+01
   8.6862380e+00  -1.6050428e+01  -1.7023719e-01   1.0013973e+00  -3.0069597e+00   2.4440495e+00  -1.3714885e+00  -7.8652415e+00   2.8455535e+00   1.6830525e+00   9.0173794e+00  -1.0499851e+00   1.5763443e+00  -7.9126100e+00  -3.2509969e+00  -1.4607634e+00   1.0617983e+00   1.1756435e+01  -2.6376646e+00   1.1600691e-01  -1.3307793e+01   6.5341304e+00  -1.6083771e+00   5.4916717e+00   9.1123549e+00  -1.6351737e+00
   4.7732626e-01   3.4198430e-01  -1.8353244e+00  -7.4623477e+00   7.1038627e+00   6.2178707e+00  -3.0267092e+00  -4.5817972e+00   1.5169421e+00   1.2278366e+00   4.3972943e+00  -6.7964075e+00  -4.0684530e+00   5.6397069e+00  -2.9558054e+00   8.9408198e+00   3.4742369e-01  -1.2401471e+01  -7.4572006e-02  -6.7201725e+00   1.0907103e+01   2.5549952e+00  -8.8469898e-01   4.7405685e-01  -8.2306418e+00   8.8812014e+00
   1.2302663e+01  -2.3338681e+00  -7.4896688e-01  -2.3328695e+00   6.5260681e+00  -2.7883021e+00  -4.0480021e-01  -6.7296251e-01  -7.4617858e+00   1.8707686e-01   3.8778927e+00   2.0338805e+00   2.8850039e+00   4.8027130e+00  -3.1268507e+01  -2.1457583e+00   2.7141015e-01  -2.3434237e+00   1.1807034e-01   2.1837150e+00   4.1110060e+01  -4.7538224e+00  -2.0381145e+01  -7.2357685e-01   9.2763847e-01   1.1228856e+00
   1.1569079e+01  -1.8697071e+01   2.1862128e-01   2.7284987e+00   1.1746363e+01   4.7968379e+00  -8.2884210e+00   2.1009979e+00  -1.8194923e+00  -1.1729300e+00  -3.1554248e+00   7.5571449e+00  -1.1995402e+00   2.1617235e+01   1.8227269e+00  -1.0393600e+01  -4.4929197e-02   2.1641010e+00  -3.7369314e+00   8.1672099e+00  -2.5754894e+01   4.4759871e+00  -4.6846749e+00  -2.5198275e+00  -5.8289637e-01   3.1004934e+00
  -9.3778088e-02   2.6230297e+00   1.1747341e+00   2.9511704e+00   1.3660037e+01   3.6503721e+00   3.2645212e+00  -3.1537234e+00   1.0729933e+00   1.1490937e+00   1.5306518e+00  -1.1329761e+01  -5.0105050e-01  -3.6087051e+00  -2.0732920e+01   1.5125955e+00  -4.0733040e-01  -1.6433649e+00  -6.8206864e+00   9.3070301e-01   2.5804710e+01  -9.1255200e+00   1.5038939e+00  -8.1438934e-01   2.7042010e-01  -2.8714971e+00
   7.2014859e-01   2.3914157e+00  -1.2690588e+01   2.7828496e-01   7.5475407e+00  -5.8966448e+00  -3.0536270e-01  -4.7563249e-01   4.5665839e-01   2.5868951e-01  -1.8863117e-01   4.0472742e+00   1.1031865e+00  -1.1135091e+01   4.0071954e+00  -1.0193908e+00  -1.4866519e+00   1.0767697e+01   3.4578356e+00  -4.5867482e+00   4.7112707e+00  -1.8896048e+00   1.0806324e+00   9.9837654e-01  -2.5564516e+00   4.0825674e-01
  -6.4398215e+00   7.4298734e-01   7.8240134e+00   4.6866956e+00   6.1153457e+00   7.3255218e-01  -2.1007523e+00  -1.3228913e+00   3.8330081e+00   2.0605890e+00  -1.1460042e+01  -7.2516379e-01   6.8185694e-01  -9.6557304e-01   3.9159119e+00  -3.2569494e+00   2.8592056e+00   1.0266771e+01  -6.6074667e+00   2.2434747e+00   4.0780581e+00  -1.8913516e+00   1.1219038e+00  -9.8902575e+00   9.3544211e-01  -7.4365824e+00
  -1.3064767e+00   1.2840053e+00   1.5630003e+00  -2.8983907e+00  -5.1809547e+00  -6.0965619e-01   2.9129346e+00   2.3963387e-01   3.5665699e-01   1.6709803e-01   1.0811123e+00   1.0025448e+00   1.6351647e+00   1.5140901e+00  -4.4764866e+00  -7.8816905e-01   4.1045839e-01  -2.5540514e+00   1.3739808e+00  -5.2845392e+00   5.2679880e+00   1.1354568e+00  -1.4320754e+00  -2.2522787e+00   3.3492735e+00   3.4854733e+00
  -8.5647064e+00  -1.2451075e+01  -3.0687082e+00   1.6497423e+01   4.5169317e+00   7.2154776e+00   6.4062490e+00  -1.1455823e+01   8.0398697e+00   4.8468050e-01  -1.0478570e+01   8.7082479e+00  -2.4751197e+00   5.3678064e+00  -3.8639729e+00   5.3100686e+00  -1.5992838e+00  -1.1206809e+00  -1.9977077e+00   6.9328222e+00  -4.3236186e+00  -5.2943946e-01   1.1062526e+00   1.6556113e+00  -1.5073433e+01   4.7584607e+00
   1.5308730e+01  -4.0786735e+00  -2.1394510e+01  -1.1874352e+00   2.4989362e+01  -3.0637420e+00  -9.4963200e-01   1.8180537e+00   3.6370493e+00  -3.4767580e-02   6.8340197e+00  -9.2845788e-02  -2.5005322e-01  -6.4210045e+00   5.5575649e-01  -1.1503402e+00   1.7261317e+00  -5.6121889e-01   8.0946611e+00  -4.1439357e+00  -7.3359419e+00   2.7126451e+00  -4.2987423e-01  -4.2434770e+00  -3.0650240e+00  -7.2768863e+00
   3.7618637e+00   4.2468629e+00  -1.0939228e+00  -7.7283312e+00  -1.0850236e+01  -9.5763246e+00   5.5745688e+00  -1.7020270e+01  -8.6461141e+00  -2.7975252e-01   3.7919362e+01  -9.5122333e+00   7.1068194e-01  -5.3544146e+00  -5.4870501e+00  -4.4259673e+00  -3.5269952e+00   8.7427770e+00   1.0128954e+01   2.7515895e+00   1.9021724e+00   4.3698545e-01   7.2618799e-01  -1.9321597e+00   6.1981328e+00   2.3160666e+00
   1.5344141e+01  -4.7249202e+00  -1.9219561e+01   2.9582427e+00   5.7710777e+00   8.3086311e+00   1.2739732e+00  -2.0681427e-01  -2.3306541e+00   4.7248010e-01  -3.1199565e+00   5.7600502e+00  -4.4271906e+00  -1.4289590e+01   7.2620367e+00   1.5991864e+00   1.6891893e+00   7.3948003e+00  -9.2908760e+00   4.3995687e+00  -1.8472398e+01   4.6238574e+00   6.1841135e+00   1.4078750e+00   1.1805499e-01   1.5343923e+00
   1.0087658e+01  -1.8768360e-01  -6.0259629e+00  -1.0851679e+00  -5.0742604e-01  -7.8852371e-01   8.8127640e-01   5.4224464e-01  -1.4490321e+00   8.0194880e-01  -1.4489409e-01   6.8083823e+00  -1.0469887e+00  -7.8888586e+00  -6.4240079e+00   8.9569387e-01   1.3083448e+00  -1.4315347e+00  -4.7127247e+00   1.7052013e+00   8.5363722e-01  -1.4541058e+00   3.6087396e+00   1.0249345e-01   2.9641108e+00   2.5905348e+00
  -1.4044692e-01  -8.6694290e+00   1.2389287e+00  -8.4769255e+00  -1.2377062e+00  -1.1895069e+00   1.3524815e+00   3.4464493e+00   6.0852092e+00   2.0144182e+00  -4.4345848e-01   1.0020659e+01   2.0885061e+00   1.9045102e+00   2.1347996e+00  -5.1599627e+00  -9.3762801e+00   6.2902718e+00  -4.0172519e-01   1.6336160e-02   1.2067465e+00   9.2682661e-01  -2.5326429e+00   1.5298934e+00  -2.0698699e+00  -5.1003581e-01
  -3.5999139e+00  -1.4207156e+00  -5.7694287e+00   3.5964191e+00   1.2303302e+01   2.7458852e-02   1.6529944e+00   1.7664509e+00  -4.1988573e+00   1.1226941e+00   2.3982514e-01  -5.0921987e-01  -3.4776616e+00  -9.3177904e-02  -6.3110725e+00  -1.2812707e+00  -1.1521329e+00   7.3887545e+00   1.2793907e+00   4.0066581e+00  -1.3716198e+00   1.5777791e+01  -2.5673207e+00   1.8245241e+00  -1.3655745e+01  -5.5716064e+00
   1.0223591e+01   9.4814550e+00   6.5924855e+00   1.2677699e+01  -5.7068098e+00   1.4029070e+01  -2.4450494e+01  -4.2900589e+00   2.3343119e+00   2.7764728e+00  -1.9387400e+00  -7.4048662e-01  -2.3976766e+00   4.7136858e+00   8.4712490e+00   7.6090084e+00  -2.5949444e+00  -1.6439291e+01   8.1075706e-01  -2.6136416e-01  -1.8468687e+01  -4.8934360e+00  -3.0298010e+00   1.6254593e+00   1.0276311e+01  -6.3884682e+00
   8.0017894e-01   4.3025483e-01   1.2100566e+00  -1.6474330e-01   5.6700934e-01   2.2491820e+00   2.4099356e+00  -1.8606043e+00  -1.7894882e+01   7.8263261e-02   3.3639728e-01   3.0559346e+01   1.2216447e+00  -2.9132618e+00   1.3545478e+00   2.6351906e-01  -1.1501492e+00   1.3676856e+00   1.9949715e+00  -2.0266628e+01  -7.6177758e-01  -2.4322019e-01   3.1729912e-01  -6.1240115e-01  -9.5244517e-02   8.0669844e-01
   1.2030273e+01  -4.3510148e+00   1.0834442e+01   7.1814687e-01  -2.4481710e+01   1.8444141e+00  -1.5736279e+01  -4.6673670e+00  -1.7704829e+00  -2.6866537e+00   4.8263350e+00  -2.6202306e+00   3.5359011e+00   6.3572494e-01   3.8027580e+00   8.3084582e+00  -5.2399695e+00  -2.5018801e+00   1.9867502e+01   3.9683033e-02   7.4823750e+00  -6.5670611e+00  -1.4371958e+00  -1.3034017e+00   2.2796922e+00  -2.8726044e+00
  -1.2603338e+01  -8.0816385e+00   2.3870017e+01   1.3437462e+01  -3.6972530e+00  -5.8151607e+00  -5.3038455e+00  -4.8700560e-01  -3.5438600e+00   9.0068619e-01   7.3311471e+00  -2.0549647e+00   3.0211097e+00  -2.2220442e+00  -8.6526806e-01   8.2841222e+00   2.5659655e+00  -6.7930288e+00   3.8648724e+00  -2.6850253e+00  -4.0037650e+00   1.4868716e+00   1.6182445e+00  -1.0177876e+00  -4.9450431e+00  -2.2596064e+00
  -3.1763240e+00  -6.4661562e+00   8.5757865e+00  -1.6528397e+00  -1.4945640e+00   8.3732669e-01   7.1410903e+00   6.7378230e+00  -7.2214026e+00   5.2791622e+00   3.6754322e+00   2.1470358e+00   1.8078621e+00   1.4728668e+01  -1.8119330e+01   6.8259998e+00  -1.4849148e+01  -1.6012751e+01   1.0535817e+01   1.3975521e+01   6.0828116e+00  -6.3755589e-01   6.9065573e-02  -2.0072180e-02  -4.3189348e+00  -1.4474174e+01
   1.6792512e+00  -3.8584010e+00   6.5444700e-01  -1.2497777e+00   1.3776672e+00   5.2999772e-01   3.6355694e+00  -2.0964966e+00  -5.9170962e-01  -1.3567009e-01   2.3670563e+00   2.7927171e-01   3.1414704e+00  -4.6829176e+00   5.4668276e-01  -2.0909694e+00   1.7484771e+00  -7.4672872e+00  -5.8104337e+00   4.9526885e+00  -1.7639794e+00  -1.2402579e-02   8.6854647e-01   2.0817536e+00   1.8171097e+00   4.0870818e+00
   3.7292996e+00  -1.7564354e+00  -6.9845729e+00  -5.7607585e+00  -1.4558730e+00   1.9798330e+00  -8.0931591e+00   1.7018383e+00  -2.4836155e+00   8.3690467e-01   8.0218204e+00   5.7633507e+00  -1.0033337e-01  -7.9432982e+00   2.3916493e+01  -5.3721982e-01   6.5249427e-01   2.7614067e+00  -4.7442338e+00   5.9483857e+00  -1.6377698e+01   1.0205418e+01  -6.6782049e+00   1.5296229e+00  -7.6050281e-01  -3.3522915e+00
  -7.4150667e+00  -1.7725191e+00  -1.4988250e+01   3.5340125e+00   2.1135961e+01   2.4422003e+00  -5.4951363e-01   1.5387125e+00   1.6835744e+00   4.4061030e-01  -2.5907300e+00  -1.6758470e-01  -1.8119156e+00   5.9608952e+00  -4.0809985e+00  -1.5515157e+00   3.3389040e-01   6.0178125e+00  -4.1322793e+00  -3.6559471e+00  -1.5534092e+00   2.0726781e+00   2.3270021e-02  -1.0475345e-01   1.3198731e+00  -2.1266614e+00
   2.7348661e+00  -9.2405589e+00  -2.7428331e+01   2.5707183e-01   8.3295165e+00  -1.6963417e+00  -2.3802783e+00   6.6003739e+01  -3.6055417e+00   2.5025887e+00  -3.3761241e+01  -3.7044134e+00   1.3929662e+00  -1.0417758e+01   5.1409076e+00  -5.3097648e+00  -2.1672493e+00   3.0216687e+00   3.6653922e+00   1.8555109e-01  -2.7945273e+01   1.1420080e+01   2.4191387e+00   4.8810465e+00   4.0949315e+00   1.1600218e+01
  -1.5527002e+01   3.4264781e+00  -1.7261281e+00   3.5057175e+00  -4.7262388e+00  -3.2280698e+00   2.1150304e+00   5.3772023e+00  -5.8594339e-02   6.3706187e-01   2.5100765e+00  -6.8557701e+00   8.1943592e-01  -7.1612162e+00   3.6000242e+00   1.1774337e+00  -2.7426802e+00   1.6500013e+01  -1.7794170e+01   3.0848416e+00   8.8067317e+00   5.4506384e+00  -3.2048661e+00  -1.8528728e+00  -4.0113279e-01   8.2736488e+00
  -6.2160418e+00  -7.5283099e-01   8.5237932e+00   9.4720644e-01  -7.0498202e+00   4.4797758e+00  -4.8964681e+00   3.7366365e+00  -1.4657787e+00   4.0703879e-01  -1.8742180e+00  -2.1629065e+00  -2.2246249e+00   8.2633261e+00   1.2921383e+01  -6.2792554e+00  -3.8750848e+00  -3.6239216e+00  -2.6030411e+00   4.2642822e+00   5.1641386e+00  -3.2103757e+00   8.8823065e-01  -1.0968888e+00   7.7746071e-02  -2.3464740e+00
  -9.3514117e+00  -5.2105813e+00   2.9137954e+00   3.0464222e+00   3.2799577e+01   8.0443023e-01  -2.6514683e+00   5.6557155e+00   5.7682344e-01   1.9525796e+00   3.3609098e+00  -2.9646927e+00  -1.0275584e+00   1.1317579e+01  -1.0134992e+01  -1.4874875e+01   1.2422690e+00   4.1186466e+00  -2.0886235e+00  -1.2104361e+01  -7.1030506e+00  -3.3666077e+00   3.0529594e-02   4.1079520e-01   4.6608718e+00  -2.0342471e+00
  -1.5493882e+01   1.7445742e-01   6.2843863e+00  -1.0347662e+00   4.1283108e+01  -6.5682260e+00   8.1706649e+00   1.3464293e-01   1.3052354e+00  -1.2776691e+00  -1.2602746e+01   5.7422824e+00  -2.1110560e+00  -1.2302075e+01  -1.3975991e-01  -2.0509565e+00  -8.4923045e-01  -1.5767915e+01  -2.1442638e+00   1.3766381e+01  -7.0734351e+00   3.3532443e+00   6.6717537e+00  -2.8114662e+00   4.5513680e+00  -9.2100787e+00
  -1.2195324e+01  -4.0894440e+00  -7.4793062e+00  -1.4807865e+00   8.4613468e+00  -3.6308966e+00  -3.1607333e-01   1.3861717e+00   2.2882705e-01   1.0343703e+00   2.3223987e+00   1.9804341e+00   3.3455248e-01  -9.9343201e+00   2.6542202e+01  -2.4910966e+00   1.1360488e+00   3.3738913e+00  -5.9984668e+00   3.3138505e+00  -9.9953338e+00   5.2059552e+00   2.5108430e+00  -8.0426470e-02   9.5338465e-01  -1.0850195e+00
  -2.6158490e+01  -4.6752050e-01  -9.7955677e+00  -2.3686117e+00   2.0006182e+01  -4.9312419e-01   7.7505729e+00   5.3971588e+00  -1.9071756e+00  -7.9816582e-01  -5.6339887e+00   2.8957963e+00   2.2368922e+00   8.8874385e+00  -1.8480678e+00   5.6218281e+00   1.1373866e-01   7.7501501e+00  -1.9248304e+00   1.0620526e+00   6.2311878e+00  -7.8263229e+00   4.9602410e-01   1.6787856e+00   8.4440178e-01  -1.1760143e+01
  -6.7108181e+00  -7.8800743e+00  -2.6032419e+00  -1.1033872e+00  -4.4014284e+00   2.7808052e+01   1.1789712e+01   9.6095480e+00  -1.7910153e+00  -1.1847364e+00  -3.9108331e+00  -2.2106098e+01   6.0172767e-01  -6.4394492e-01   2.6142533e+00  -1.9883224e+01   1.8867471e+00   1.2371120e+00  -1.0289168e+00   1.1699293e+01  -1.2843751e+00   2.7422901e+00   1.5169371e+00   2.6636320e+00  -1.0312133e+00   1.3963031e+00
  -7.7364905e+00   2.1762558e+00   8.5816336e-01   2.1282153e-01   3.5973574e-01   2.9147967e+00   2.8595097e+00   6.0129798e-01   3.1857779e+00   1.2068748e+00  -1.9408554e+00  -2.9876655e+00   1.3132329e+01  -1.3855732e+01  -4.8944853e+00   1.1209218e+00  -1.1089132e+00  -9.0149200e+00   4.4804604e+00  -4.7276929e+00   1.1287189e+00   2.7746989e+00   6.8172494e+00   8.9707209e-01  -3.2608598e+00   4.7946229e+00
  -3.3218977e+00  -3.3447441e+00   7.7136080e-01  -6.0649735e+00  -8.7219976e+00  -9.2045078e-01   2.4501538e+01   8.1310268e-01  -8.1810547e+00  -5.3640898e+00  -3.7609163e-01  -2.4809108e+00   5.0964421e+00   4.7230234e-01   6.4947559e+00   6.3380471e-01  -2.7825208e+00  -4.8901223e+00   7.4890264e+00   7.2444616e+00   3.0496504e+00  -6.1071766e+00  -1.6520827e+00   1.0256131e+00   2.6139083e+00  -6.0077354e+00
  -2.8159407e+01   6.0390697e+00   9.5469200e-02   1.2669529e+00  -1.3051664e+01  -6.6446936e+00   6.4367676e-01   9.6691637e-01  -2.6020549e+00   2.2068394e+00   1.7157780e+00   3.9457513e-01  -6.9855989e+00  -9.2108486e+00  -7.1167685e+00   8.8937341e+00   1.1236196e+00   7.8145538e+00   6.7864029e+00  -6.4632847e+00   1.6742514e+01   2.7587825e+00   5.2144794e+00   2.6437652e+00   2.1001778e+00   1.2826387e+01
   2.5592896e+00   6.5384272e-01  -1.7152549e+01  -2.2382558e+00   4.4610777e+00   2.4566174e+00  -9.3415464e-02   8.5066063e+00  -3.4212916e-01   8.7774315e-02  -1.0663828e+01   4.4589781e+00   1.3265149e+00   1.7238373e+00   4.5997134e+00   4.4562952e+00  -4.6229668e-02  -5.3390017e+00   6.2858570e+00  -1.2626044e+01   8.4671841e+00   2.5850663e+00  -5.2732462e-01  -1.6565192e+00  -9.3991692e-03  -1.9524161e+00
   5.9800406e+00  -9.6962446e+00  -5.3352812e+00   4.1536064e+00  -2.2212992e+00  -2.1547903e+00   2.9830051e+00  -8.3466895e+00   2.3029325e+00  -1.8193281e+00  -2.3621354e+00  -2.6936820e+00   1.2446247e+00   8.4062761e+00   9.9350815e+00   5.7172227e+00  -1.1498149e+00  -3.6580357e+00   1.2505223e+00  -4.2156468e+00  -4.7639486e-01   7.3291799e+00  -7.5796174e-01   1.3820053e+00  -1.1921331e+01   6.1508032e+00
   1.3786935e+01  -4.8328642e+00   1.0015812e+01  -3.2244346e+00   1.1443769e+01   4.0367730e+00  -5.9038921e+00  -5.2585987e+00  -4.6843964e+00   8.4686943e-01  -1.1448106e+01   1.0576149e+01   1.9431998e+00   5.0837772e+00   6.5963909e+00  -7.5441837e+00   2.5522271e-01  -1.0365818e+01   4.2377511e+00  -4.3078916e+00  -9.2650069e+00  -7.9237363e+00   4.4518725e+00  -8.7409653e-02   4.2973583e-01   1.1346167e+00
  -2.1671239e+01   7.4608301e+00  -9.3937243e+00  -1.1218783e+00   1.2470807e+01  -3.8769221e+00   1.0633602e+01   2.7236009e+00  -6.5454487e-01   6.4509177e+00  -6.1997412e+00   1.0345190e+01  -2.8650878e-01   5.2012191e+00   1.1703299e+01  -1.7173324e+00   9.2810149e+00  -1.3469878e+01   3.3506933e+00  -5.3965618e+00   1.4019637e+00   2.0091781e+00   2.3597994e+00  -3.1233646e+00  -1.5903699e+01  -2.5610886e+00
   2.3452955e+01  -6.9218866e+00   2.4620468e+00  -9.6542946e-01  -8.4325119e+00   1.3808165e+00   3.9514423e-01   1.4773010e+00  -3.0154880e+00   2.5448017e-01  -2.8697946e+00   5.5687738e+00   8.9149384e-01  -1.6094116e+01   7.8752808e-01   1.1565654e+00   2.9327165e+00   3.5076705e+00   6.1758295e+00  -1.0198218e+00   3.5048214e+00   1.1038206e+00  -5.2980271e+00  -3.1750036e+00  -4.9270817e+00  -2.3238132e+00
   2.4248322e+00  -2.1773284e+00  -1.4153428e+01   9.3054587e-01   9.5568680e-01  -2.0983708e+00  -2.0006028e+00   1.4842380e+00   1.7774011e+00   3.2345542e-01  -1.2925868e+00  -3.9150342e+00   5.4315251e+00   3.2913198e+00   1.5134144e+01   3.8779955e+00   2.3304685e+00  -5.7310047e+00  -1.9429782e+00   1.9789878e+00  -2.0691977e-01  -1.8256256e+00  -4.2570800e+00   2.0371328e+00  -2.6144853e+00   2.4457543e-01
  -9.5734443e+00   2.2125238e+01   2.6990267e+00   3.0911010e+00   1.9998576e+01  -1.0243817e+01  -6.1890717e+01  -1.3110863e+01  -5.7106230e+00  -2.3347277e+00  -8.4484595e+00  -4.5497277e+00   6.7946612e+00  -1.3000615e+01   1.1762975e+01   2.1846623e+00  -6.4844371e+00  -1.0804668e+01   7.3980024e+00   3.1394874e+01  -1.2704301e+01  -1.3305448e+01   1.3540595e+00   3.6286470e+00   6.0951169e+01  -1.2076134e+00
   3.3443404e+00  -3.9226659e+00  -6.8892806e+00  -7.1617199e-01   5.4560861e+00   3.3676474e+00   3.3112558e+00   1.5805408e+00   3.2311222e+00  -7.6954845e-01  -2.0351833e+00  -3.1579474e+00  -1.2550390e+00  -6.4501842e+00  -9.4748275e+00   2.2937484e+00  -7.2308585e-02  -7.4804991e+00   3.0212166e+01  -5.3298961e+00  -3.9086292e+00  -8.1458404e-01   2.2412066e+00   4.4888112e+00   1.8491395e+00  -9.1124493e+00
  -1.3699675e+01   5.2006137e-01   3.3553801e+00   7.5056361e+00  -1.5143173e+01  -5.0519633e-01   3.1677457e+00  -7.7210361e+00   3.7463516e+00   2.1937999e+00   9.0677802e+00  -1.0172725e+00   7.0445782e-01  -9.4346481e-03   3.7862985e+01  -8.4502430e+00   1.3956160e+00   3.5063912e+00  -6.4863590e+00   3.7317335e+00  -1.8418058e+01   5.2745955e-02  -1.0873320e+00  -9.9058196e-01  -6.0011503e+00   2.7463647e+00
  -7.4029669e+00  -4.2445161e+00  -1.7125582e+01  -1.1368488e+01   2.6417100e+01  -1.4404094e+01   1.9298691e+00  -7.3618926e+00   3.5630681e+00   5.6726833e-01   1.8357685e+00   4.3710193e+00   1.1869964e+00  -5.9872831e+00  -5.8574778e+00  -3.4811490e+00   1.1918410e+00   1.4949653e+01   1.0339597e+01   1.7961157e+00   3.4431598e+00   2.8173773e+00  -2.0804513e-01   2.0390824e+00   3.6287010e+00  -2.6094746e+00
   9.8803959e+00   6.5948962e+00  -1.2458172e+01  -5.0520901e+00  -2.6265123e+00   9.1483675e-01   1.7995174e+00   7.5152661e+00  -2.3378773e+00   2.5916933e+00   1.4195618e+00  -5.8333802e+00   6.8208750e-01   2.1900202e+00  -7.6069569e+00   2.3056135e+00   4.3085888e+00   4.1806244e+00   7.8597541e+00  -7.6323033e+00  -1.0355518e+01   1.7560224e+01  -1.7876707e+00   1.5430037e+00  -1.7229020e+01   1.5500847e+00
   8.5931059e+00   7.4226683e+00  -1.0608096e+01  -7.8177437e+00   2.2500033e+00   5.8984161e+00  -5.1564332e+00   1.3420098e+00   3.9008334e+00   2.6199324e-01  -6.5693104e+00  -8.8978059e+00   7.2490433e+00   5.0673108e+00   7.2476060e+00   3.0361567e+00  -1.3774880e+00  -1.1657527e+01  -4.1393442e+00   1.2370198e+00  -4.5110683e+00   2.0495853e+00  -9.8822160e-01  -1.1703403e+01   4.8368049e+00   1.3019978e+01
   1.9543127e+01   5.9488453e+00  -8.7603098e+00  -1.6631285e+01  -2.2328405e+01   1.5042021e+00  -1.3557004e+00  -6.7345608e+00   1.3065513e+00   1.6002335e+00  -2.2306478e+00  -3.3499084e+00  -5.1860772e+00   6.3347750e+00   1.3058373e+01   6.0285586e+00   5.3771476e+00  -4.0018774e+00  -3.0743642e+00   4.8278693e+00   1.1443260e+01  -2.9130983e+00  -2.4080194e+00   6.2149671e+00  -5.0141152e+00   8.0339335e-01
   5.5253998e+01   6.9704300e+00  -4.9757680e+00  -2.6345495e-01  -1.4586929e+01  -1.8483238e+00   4.7197815e+00   6.1770236e-01  -3.0373541e+00  -8.1484789e-03  -1.1641116e+01   6.8599717e+00  -7.5669129e+00   9.3460273e+00  -7.0755790e+00   7.7407835e+00   1.1929362e+00  -8.1624591e+00   2.2877746e-01   2.5244033e+00  -2.3783747e+01  -3.8316772e-02   1.8329021e+00  -1.2439186e+01  -1.8644925e+00   7.7086104e-03
  -1.1168856e+00  -1.8737576e+01  -1.1921750e+01  -1.5481066e+01   8.9880202e+00  -3.6162752e+00   1.1092499e+01   2.9224673e+01  -3.2427229e+00   1.7658948e+00   1.5917690e+01  -2.1859612e+01  -4.3757771e+00  -5.5176743e+00  -2.7077194e-01   6.5985187e+00  -1.8524870e+00   8.1119659e+00  -5.4241375e+00   3.2290910e+00  -1.5967338e+00   5.5565181e-01   2.1336698e+00  -2.3016043e+00   4.4616107e+00   5.2386568e+00
  -6.7245150e+00   6.3792540e+00   5.2500925e+00   4.7219461e-01   3.6823386e-01   1.1497911e+00  -3.5084062e-01  -2.0965881e+00  -3.3782020e+00  -2.0990391e-01   3.7136595e-01  -4.3905446e-02  -1.0952544e+01   2.0662042e+01   2.2781644e+00   2.1770550e+00   1.1052117e+00  -6.5313267e+00  -5.2475306e+00  -2.3807710e+00  -6.1486005e+00  -5.0010621e-01  -6.9945037e-01   7.4546209e+00  -1.0021339e+00  -1.3961140e+00
  -2.9363777e+00   5.3007514e+00   1.1643810e+00  -1.1650833e+00  -5.1031077e+00   2.6553418e+01   7.2826983e+00   2.1244022e+00   1.0542740e+01   1.0494543e+00  -1.0508559e+00   2.7526665e-02  -3.3049287e+00   2.9248844e+00   6.7083909e+00  -2.9670174e+01   5.7758282e-01   4.0832261e+00  -1.3693587e+01  -2.8139711e+01  -1.1769797e-02   3.6238393e+00  -9.8893506e-01   1.0895401e+00   5.7341589e+00   7.2594203e+00
   4.8034241e+00   2.3485127e+00   5.9157000e+00   3.2906607e+00  -2.5516645e+01  -8.5185426e+00  -5.8233674e+00  -1.2436846e+01   4.0815869e+00  -2.5952952e-01  -9.5052671e+00   2.1818581e+00   6.1711020e+00   4.6374327e+00   3.6854559e+00   1.4681154e+01   7.9425429e+00  -4.0858310e+00  -9.7450312e+00  -8.3920314e+00   7.9282236e+00   6.1015299e+00  -1.1892671e-01   9.7284305e+00  -1.8955140e+00   2.8334303e+00
  -9.4099798e+00  -3.5457795e+00   1.3448790e+00   4.3954728e+00   3.1972890e+00   1.8471813e+00   1.7074702e+00   5.4854584e-01  -5.4094582e+00  -3.8288620e+00  -5.4105115e-01   1.2261343e+01   1.4880783e+00  -5.3829256e-01  -4.6101719e+00  -3.4639679e-01   2.5808008e-02  -5.2144053e-01  -4.7591807e-01  -9.3427872e+00   5.6963096e+00   3.8804942e-01  -3.8356772e-03   1.2086496e+00   6.2595721e+00  -1.7971668e+00
   5.3523135e-01  -4.3697826e-01  -1.1574705e+01   4.3589185e+00   4.1870286e+01  -2.1172992e+00  -1.6444109e+00   1.9359037e-01   2.2536988e+00  -1.3444062e+00  -6.0538598e+00   2.4820572e+00  -4.5536608e+00   1.0001421e+01  -1.0802724e+01  -2.7162027e+00  -1.2843120e+00  -1.8029472e+01  -8.1439615e-02   9.9972170e-01  -1.0704611e+01   2.8276130e+00   2.6761866e-01   7.8477337e-01   3.2556276e+00   1.5008016e+00
   4.5179040e-01   9.3102840e-01   7.1207797e-01  -5.5405539e-01  -4.5591827e-02   7.7369426e-01   1.1013448e-01   7.5259314e-01  -1.0465502e-01   4.8034692e-01  -1.4723431e+00   1.6944982e+00   4.4169645e-01   2.9316647e-01  -7.0026846e-01   1.8779652e-01   6.3990451e-01  -6.0444611e-01   2.2451584e+00  -3.9390201e+00   1.8072028e-01   7.0574484e-02  -1.4742249e-02  -3.8369664e-01  -1.6601594e+00  -4.8320850e-01
   3.1764768e+00  -4.0168217e-01  -1.1199241e+01  -3.3023779e+00   1.3325505e+01  -1.2189286e+00  -5.9957171e+00  -6.0076933e+00  -3.4404788e-01   2.7813922e-01   5.7731247e+00  -5.3085191e+00  -4.8263308e+00   3.8633762e+00   4.3976791e+00   4.2315097e+00   2.4666315e+00   1.5653565e+01  -3.8453132e+00  -6.1704781e+00  -3.0352220e+00   2.0414309e+00   1.8718432e+00   3.1717217e+00  -7.1178639e+00  -1.4823610e+00
   9.1379426e+00  -7.9369693e-01  -2.2493014e+01  -4.2321118e-01   6.4523748e+00  -2.8831897e-01  -6.9610599e+00   1.6824072e+00  -2.9102344e-01   1.2043300e+00  -3.2958646e+00  -6.6399545e-01  -2.1656026e+00  -5.0987796e+00   1.8469629e+01   6.3405904e-01  -2.2247167e+00   5.6022763e+00   5.1937374e+00   1.2366498e+00  -8.7977107e+00   1.2935340e+00  -6.3203547e-01   3.4603879e-01  -3.2911252e+00   6.1565788e+00
  -7.6362215e-01   1.5506842e+00  -1.3312713e+00   1.2721678e+01   5.7215474e+00   2.9457573e+00   7.7852715e-01  -1.1747595e+00   5.7389078e+01  -1.5429386e+01  -1.1518562e+01  -5.0856190e+01  -6.3784485e-01   5.1247891e-01  -3.2638106e+00  -1.3423042e+00   1.7655618e+00  -1.9324857e+00  -9.6550585e+00   1.2516963e+01   3.3139808e+00   4.1953376e+00  -9.6813033e-01  -1.9663611e+00   2.1538853e+00  -4.7388575e+00
   2.6314946e+01   2.7224816e+00  -7.7522584e+00  -5.0586313e-01   3.1858384e+01  -1.5887374e-01  -4.8414645e+00  -2.9397715e+00   3.4347729e+00  -2.6132078e-01  -7.8663774e+00   4.4959073e+00   1.3191082e-01  -1.0756200e+01  -9.1157536e+00  -2.1957071e+00  -2.9294505e+00   1.5046913e+00   6.9358443e+00  -3.2641476e+01   3.8016882e+00  -9.1707244e+00  -7.3510836e-02  -1.3024601e+00   7.2781169e+00   4.0337760e+00
  -4.6575378e+00  -1.5894692e+01   5.2510988e+00   1.8425809e+00  -1.8890936e+01   2.4204179e+01  -6.8900381e+00  -8.4177475e+00  -1.4097969e+00  -2.0097734e-01   1.4825890e+01  -1.6289267e-01   4.3748437e+00  -4.9395855e+00  -3.0949116e+00  -1.1082714e+01   7.0840296e+00  -8.3155051e+00   2.7922216e+00   5.6034080e+01   8.2547080e+00  -7.0497200e+00   1.2269315e+00  -9.2075293e+00  -2.4419983e+01  -1.2538229e+00
   3.8224090e+00   3.3006182e+00   1.2272143e-01  -8.1849261e-01   1.4398157e+00   3.7048178e-01  -5.5819282e+00  -1.4291752e-01  -2.1402492e+01   2.6291156e-01  -1.3579535e+00   1.4234932e+01  -3.5899355e+00   2.1311631e+00   5.6240048e-01  -3.1343856e-01   1.3784114e+00  -3.6041713e+00   1.7922206e+00   9.0136122e+00  -1.0774290e+00  -2.5252285e-01  -3.1805004e-01   8.0459218e-02  -4.6559750e-01   4.1497861e-01
  -3.3409797e+01  -2.9767618e+00   7.0012902e+00  -1.1336838e+01  -9.4730323e+00  -5.2409393e+00   3.6487157e+00   8.7172471e+00   6.0607162e-01   7.2064540e-01  -4.2881856e+00  -2.1998374e+00   5.8292877e+01  -3.7135622e-01  -2.3653984e+01  -6.7261953e+00   6.0838707e-01   3.5940428e+00   3.0861342e+00   2.2192338e+01  -6.4136523e+00   9.2948907e+00  -1.0962524e+01  -6.0506942e-01  -2.1929268e+00   2.1147324e+00
   8.8810572e+00   6.9743559e-01  -4.0839773e+00   1.3782071e+00   3.4301141e+00  -2.2730552e+00  -2.0850269e+00   4.2108360e+00  -3.6271611e-01  -1.1055910e+01   2.4838850e+00   3.4273540e+01   1.2382337e+00  -3.8881394e+00   2.6532580e+00  -1.4682383e+00  -1.8398003e+00  -5.4280062e+00   5.4567647e+00  -2.2860724e+01   6.0098178e-01   4.6541209e+00  -6.7649565e-01   9.0876488e-02  -1.2577037e+01  -1.4541003e+00
  -4.6996777e+00   9.1953751e-01   2.5109830e+00   2.9067028e+00   1.0942026e-01  -1.1001010e+01   8.4839027e-02   1.8484552e+00  -4.4681206e+00  -1.4942933e+00   5.7862825e-01   5.8795339e+00   1.7983151e-01  -6.0013451e-01   2.9272347e+00   7.5729604e-02  -3.2360255e+00  -9.1749447e+00  -4.3498563e+00   1.2534382e+01  -1.2873679e+00   5.3833289e-01   1.3500917e+00  -1.8984879e+00   8.6671855e+00   1.0917031e+00
  -2.6582504e+00   1.2902549e+00   3.2023383e-01   6.9868782e+00   1.8422413e-01   1.9430811e+00  -6.0665768e+00   2.7653198e+00  -2.0153749e-01  -4.5503529e-01  -1.8101775e+01   2.0997202e+01  -3.3250881e+00   1.3654790e+01  -3.3383910e+00   5.3462229e+00   2.3655362e+00  -8.1130716e+00   2.1886153e+00   1.6691035e+01   1.6991164e+00  -2.1021142e+01   1.5427431e+00  -5.8070054e+00   4.7365376e+00  -1.3625239e+01
  -2.5504429e+00   1.2157996e+01  -6.4944766e+00  -4.4759180e+00  -6.3819329e+00   1.4158638e+00   2.6536060e+01   6.9742333e+00  -3.6046889e+00   2.1466576e+00   8.9606719e-01   1.4179822e+01  -4.8942029e+00   9.9741401e+00   3.3248300e+00  -7.1345733e+00   6.2165277e+00  -1.1007778e+01  -1.6561011e+01  -5.9393571e+00   6.6621554e-01  -5.3296831e+00  -2.1990767e+00  -3.0986709e+00  -1.6136005e+01   1.1362323e+01
   3.2756501e+01  -3.8832243e+00  -7.2119776e+00  -5.3989222e+00   2.6822873e+01   6.4686987e+00  -1.8798506e+00   4.9436721e+00   1.3690604e+00   2.1909966e-01  -1.5612150e+01  -6.8698000e+00   3.5289237e+00  -2.1333644e+01  -6.5979936e+00  -6.9403664e+00   1.2185302e+00  -1.5949630e+00   1.2482943e+01   3.9921591e+00  -1.6914587e+01   3.1727870e+00   2.9361100e+00  -5.3000947e+00   8.6960411e+00  -9.0809078e+00
   4.5726055e+00   3.2824521e-01   1.1720485e+00  -3.0954407e+00   6.0811871e+00   3.7366076e+00   2.8130147e+00  -2.2863735e+00  -2.6125684e+00  -8.6077555e-01  -3.8401484e+00  -1.6869571e+00   3.8730179e+00  -8.1869297e+00  -8.9322740e+00  -1.8053091e+00  -2.3395724e+00  -1.5242590e+01  -2.0487925e+00  -5.7120543e-01  -3.2074993e+01   4.0342886e+01   7.9823989e+00   1.5520369e+00   9.1617451e+00   3.9614703e+00
  -3.0101908e-01   1.4532877e+00   2.4857768e+00  -1.9821867e+00   4.5619312e+00   3.3502165e+00   3.8269442e+01  -5.2455197e+00   8.4475370e+00  -9.6525749e-01  -2.3218699e+01   4.4631102e+00  -1.4738076e+00  -6.6891065e+00   9.0389214e+00  -7.2387116e+00   1.9351933e-01  -1.0262926e+01   1.8853199e+00  -2.6925587e+00  -5.7977066e+00   7.8727053e+00  -1.2582963e+00  -1.4232005e+00  -1.1618645e+01  -1.8534110e+00
   2.5896359e+01  -1.1060705e+00  -6.5994048e+00  -4.5225789e-01  -7.7311120e+00  -4.7925612e-01   4.9565508e+00  -4.8012373e+00   9.6436050e-01  -1.2292251e-01  -1.4716612e+00   1.9566565e+00  -4.9290855e+00  -3.3600300e+01   8.3240462e+00   5.5523655e-01   3.7764060e+00   1.4359008e+01  -6.5687763e+00  -4.8267337e+00   1.0562128e+01   3.7528814e+00   1.6711224e-01   7.2304550e-01  -5.1403029e+00   1.8208407e+00
   2.0265258e+01   1.2773484e+00   3.4491598e-01  -2.5417422e+01   7.4504263e+00   1.8077605e+00   4.5853161e+01   3.4906702e+00  -6.7795164e+00  -1.3148977e-01   2.6751604e+00   2.1066949e+00  -1.1141852e+01   4.5516502e+00  -1.3311551e+01  -8.2712232e+00   5.2823600e+00   3.9134568e-01  -7.4390134e+00   4.0894615e-01   4.5673325e-01  -7.8288524e+00  -2.0290409e+00   3.5464054e-01  -1.7668539e+01   3.2684046e+00
  -1.6202121e+01   3.7393983e+00   6.7724664e+00  -5.3516787e+00   6.4315895e+00   4.5921271e-01   1.4782533e+00   1.2712338e+00  -4.3420144e+00   3.4727890e-01  -1.1622748e+01   2.8648079e+00   9.2167001e+00   2.3670752e-01  -9.3142340e+00   1.2182849e-01  -1.7596858e+00  -1.9992582e+00  -1.4355427e+01   3.7925905e+00   1.0029219e+01   3.5661078e+01  -1.3805011e+01  -3.5613781e+00  -1.2900087e+00   1.1764048e+00
  -2.7744479e+00  -2.4562092e+00   1.2323757e-01   2.0770979e+00   5.0121753e+00  -5.6214549e+00  -1.5000378e+00  -3.8252761e+00   2.2068866e+01   5.6534285e+00  -8.8728251e-01  -1.3589203e+01  -5.4040109e-01   8.5901730e-01  -5.5382515e+00   6.0954750e+00  -1.8323499e+00  -3.1211509e+00  -6.2117666e+00   2.0704614e+00   2.4845479e+00   3.6311152e+00  -1.1421066e+00  -2.7485872e+00   6.8289177e+00  -5.1053061e+00
  -1.0214364e+01   2.2201788e+00  -2.0960674e+01   5.4629723e-01   7.1762985e+00  -1.8627504e-01  -7.9320480e+00  -3.8484989e+00   1.4912378e-01   1.8229089e+00  -8.1420450e+00   9.0173479e+00   9.5914995e-01   3.4876073e-01   1.1786446e+01   1.1411127e+00   2.8746584e+00   1.4342115e+01   2.8385531e+00  -2.9248608e+00   6.4517869e+00  -2.6989864e+00   9.5727213e-01  -4.2300069e+00  -5.2835519e+00   3.7667017e+00
   2.2029591e+00   2.7476334e+00  -1.7605391e+01  -2.3959307e+00  -1.1468154e+01   2.8690996e-01   2.9576162e+00  -5.6102504e-01   1.3340407e+00  -8.2589473e-01   7.4092241e+00  -1.0822697e+00  -1.5708651e+00  -1.0142159e+01   1.3923438e+01  -2.7295111e+00  -1.6343526e+00   1.6822116e+01   7.3434255e+00  -5.3727981e+00  -4.6728875e-01  -4.1975096e+00   1.6577199e+00   9.5753587e-01   7.6224815e-01   1.6482687e+00
  -1.4977308e+01  -3.3121647e+00   2.1519838e+01   1.0266082e+01   6.0782462e-01  -6.7461329e-01   2.0390222e+00   3.3964952e+00  -2.3340215e+01   3.2645956e+00   5.5194522e+00  -2.7034063e+00   2.1935870e+01   1.6842960e+00  -1.1279420e+01  -7.1922825e+00   3.3253484e+00   3.4163934e-01  -6.8002480e+00   4.4610259e+00   7.1535130e+00   3.6227297e+00   1.2139940e+00  -1.0201043e+01  -9.1859769e+00  -6.8745546e-01
   6.3871044e+00  -3.2483728e+00   8.4914407e+00   4.6235870e+00  -8.5589283e+00  -2.4609670e+00  -9.1161326e+00   4.3402335e+00   4.9520182e+00  -4.1728404e-01  -4.4373283e+00   4.2030006e+00  -2.2595183e+00  -2.7137325e+00   1.7008727e+01   1.0915646e+00   2.3165948e-01  -6.0477046e+00  -6.0949330e+00  -1.1112402e+00  -1.3276750e+01   6.8590205e+00   1.4309672e+00  -1.4325327e+00   2.6061392e-01   1.3118379e+00
  -3.9054158e-01   1.5627325e+00  -1.4973512e+01   1.2884478e+00  -9.2345265e+00  -6.9121879e+00   2.8656284e+00  -2.1519310e+00   3.0426740e+00  -1.1855784e+00  -4.1087912e+00  -3.6720081e+00   3.1521089e+00   3.9531092e+00   3.5493742e+00  -9.8342674e+00  -1.7728698e-01   1.8260100e+01   8.3257405e+00   2.9289027e+00  -7.1890376e-01  -3.3231508e+00  -1.0686285e+00  -1.4647516e-01   3.4109528e+00   5.5658176e+00
  -1.8691567e+00  -1.3568709e+00   1.2639887e+00  -8.4052260e+00  -2.0437703e+00  -1.3025020e+01   4.1018061e+00   1.7682939e+01  -1.4762556e+01   4.2926384e+00   1.6684471e+01  -1.9612423e+01  -1.5044356e+00  -5.7157142e+00   1.5845402e+00   1.9523035e+00  -3.3469238e+00   2.5886230e+00   5.7699904e+00   6.4388854e+00   2.6392306e+00  -1.3143112e+00   1.9809988e+00   2.4218750e+00   2.3972059e+00   1.1468316e+00
  -1.3492943e+01   7.1905370e+00  -8.4941859e+00  -8.2604821e+00  -6.3813914e+00   1.5386252e+00  -1.1368385e+01   7.4404074e+00  -5.3027082e+00   7.8750853e-01   1.3151830e+00   3.6270266e+00   1.6975463e+00  -4.3652967e+00   1.0114428e+01   1.6022766e+01  -4.8810726e+00  -6.0451148e+00   4.9612076e+00   2.3162456e+00  -1.8261710e+00  -3.9039019e+00  -2.9638558e-01   1.0560256e+01   6.1932700e-01   6.4206138e+00
  -6.5651765e-01   5.9730867e+00  -1.3652947e+00   8.2191253e+00   4.3816400e+00   4.9142800e+00   1.8678864e+01  -4.3166773e+00  -4.5077536e+00  -5.1925895e+00  -1.1329874e+00  -4.8248091e+00   1.1206887e+00  -5.2415523e+00  -6.9976218e-01   6.0140702e+00  -1.6021561e+01  -2.0538446e+00   6.6288936e+00  -1.1886512e+00   2.2436657e-01   2.5322939e+00  -1.1553144e+00   2.9544169e+00  -4.5067816e+00  -8.8027650e+00
   3.8223040e+00  -5.3164978e-01   8.6380830e-01   9.6311083e+00   1.0514197e+01  -6.7146784e+00  -4.3078741e+00  -3.3129405e+00  -3.1737640e+00  -1.8850305e+00  -3.3616978e-01   5.1206583e-01  -6.9261614e+00  -1.6789090e+01   1.0372202e+01  -1.9583653e+00  -5.9632399e-01   1.3010208e+00   1.8732409e+00   2.7854013e+00   3.9743169e+00   1.2573916e+00   1.9364454e+00   1.4135643e+00   2.8169951e+00  -6.5442386e+00
   7.1068516e+00  -8.6438242e+00   3.0724765e+00   2.5412615e+00  -9.0732357e+00  -3.2059363e-01  -1.2642901e+01   5.7011825e-02   5.1489753e+00   9.9670380e-01   6.8231971e+00  -1.2381128e+00   2.2957716e+00   2.0577624e+01  -2.3847079e+01   1.4242383e+00   2.2932521e+00   1.8080667e+00   9.4732828e+00  -1.6085262e+01   7.0450809e+00   4.1677848e+00   2.0230229e-01   3.0426186e+00  -1.9961218e+00  -4.2257411e+00
  -8.0270643e-01  -2.0928026e+01   2.1351297e+01  -1.5128514e-01   3.1707824e+01  -4.0781507e+00   2.4827018e-01  -1.0846923e+00   3.5281188e+00  -4.4716878e+00   1.3208878e+01  -9.0978070e+00  -2.1830972e+00   3.4084524e+00  -1.5194018e+01  -1.3875467e+01  -3.2347587e+00  -5.4978643e+00   1.7800493e+00   1.1596551e+01   3.8269072e+00   3.1719649e+00  -3.7404806e-01   1.5730798e-01   2.1829107e+00  -1.5234636e+01
  -1.1829442e+01   6.9152884e+00   4.8709510e+00   1.1106336e+00   7.9757116e+00  -3.1635705e+00   2.9672262e+01  -9.6805705e+00  -5.8684356e+00   1.7778939e+00  -1.2078301e+00   5.9159789e+00   3.3303463e+00   1.5810458e+01  -3.8381485e+01   6.4166867e+00  -1.5000012e+00  -1.0885776e+01  -2.2096167e+01   7.1026408e+00   1.0612578e+01  -1.8522878e+00  -3.5938821e+00  -2.6036322e+00   1.1880404e+01  -7.4321668e-01
  -1.4025729e+01  -1.9966984e+00  -1.5027022e+01   2.4503083e+00  -6.7934710e+00  -3.3623158e-02  -3.2461955e+00  -5.6766198e-01  -1.5313397e+00  -8.1114936e-01  -2.2217561e+00   1.0657093e+00   1.0207089e+01  -2.6717087e+01   5.7508367e+01  -2.2180254e+00   2.4065366e-01   8.8717496e+00  -7.7632992e+00   9.1927918e+00   3.1589239e-01  -1.2346923e+00   1.8907113e+00  -6.6093732e+00   1.3785817e-02  -9.5167104e-01
   1.4874723e+01  -3.4377583e+00  -9.1407478e+00  -3.6598181e+00  -8.7061791e+00  -7.8706475e-01  -8.3827709e-01  -9.6566555e+00   6.2610177e+00   5.8454360e-01  -2.9544054e+00   1.5549234e+00  -1.7047630e+01   4.8396701e-02   8.0147526e+00   1.4645150e+00   1.8579157e-01   1.5107159e+01   6.6627062e+00  -4.2237800e+00   4.1343828e+00  -5.4657128e-01   3.2208746e+00  -1.2705970e+00  -2.9543172e+00   3.1080668e+00
   8.1190790e+00  -4.1866170e+00  -5.1438080e+00  -2.8569311e+00   1.9962784e+00   2.8983114e-01   5.9987889e+00   1.0206439e+01   2.3036261e+00  -1.3795287e+00  -1.0891272e+00   1.5947412e+00  -5.9100790e+00  -6.6518179e+00   3.6603298e+00   3.0127446e+00  -2.0920271e+00  -2.6686686e+00   9.9326989e-01  -4.2872768e+00  -1.2838584e+00   3.7137454e-01   1.7090708e+00   4.7405287e+00  -2.6395911e+00  -4.7966452e+00
   3.3029726e+01  -1.1379181e+00  -2.1324994e+01   6.7501325e+00  -1.7205948e-01  -1.6516934e+00  -7.9148958e+00   1.6363508e+00  -1.3672865e+00  -8.4216253e-02  -3.6554641e+00   4.8538220e+00  -1.2509096e+00   3.8310057e+00   5.8269987e+00   5.9081435e+00  -2.0055896e+00  -1.4087222e+01   9.0951864e+00   4.7833848e+00  -1.2701475e+01  -3.3598402e+00  -4.4789315e+00   4.3500012e+00  -7.0025008e-01  -4.1898031e+00
   1.0439732e+01   7.6776554e+00  -9.6550329e-01  -7.0067791e-01  -8.3679194e+00  -1.1571882e-01   1.2752630e+01  -1.3329136e+00   1.3053824e+00  -9.3907417e-02  -1.5494259e+00  -1.3431569e+00  -2.3401671e+01   2.1853295e+01  -8.0968488e+00  -3.9753227e+00   1.3388522e+00  -9.3744687e+00  -3.5501644e+00   4.9836987e+00  -3.4089133e+00   9.7647124e-01   1.2299208e+01  -3.9543424e+00  -5.6074508e-01  -2.8264719e+00
  -2.3078331e+01  -2.2286748e+01   3.9120667e+00   2.8704003e+00  -1.2333795e+00  -7.1133126e-01  -4.6951743e+00   2.1473628e+01  -6.6199455e+00   8.0433892e-01   8.1681342e+00  -1.4758554e+00   5.2795207e+00   9.2878930e+00   2.4285898e+00   2.4476312e+00  -2.7308013e-01  -1.3500853e+01   5.7382721e+00  -3.5959532e+00   1.4936440e+01   1.4672633e+00  -1.3275187e+00  -6.9829371e-01   5.7644141e+00  -5.0931325e+00
  -8.2074159e+00  -1.1598689e+00  -9.1305443e+00   3.5162081e+00   2.2896672e+01   2.4393499e+01   1.4170800e+00  -5.0913166e+00  -1.2636065e+01  -4.6819011e-01  -7.8553751e-01  -1.6023311e+01  -2.4819675e+00   4.1160727e+00  -1.6944738e+00  -1.6275728e+00   1.4594492e+00  -3.1512032e+00  -6.5672999e+00   1.6497609e+01   1.3380681e+00  -2.9903340e+00  -1.0482209e+00   1.2507599e+00   2.2156322e+00  -6.0487624e+00
   4.0191127e+00  -6.6106672e+00  -6.0178511e+00  -2.0595691e+00  -1.3097137e+01  -4.3404324e+01  -4.5100696e+00   6.6811329e+00  -1.3623250e+00  -4.7910050e+00   9.4460882e+00   1.4884091e+01  -1.1983198e+00  -4.3649052e+00  -6.3269213e+00   9.6293782e+00   7.2940871e+00   4.4765237e+01   2.6603446e+00  -5.9308884e+00   5.4076949e+00   4.5343925e-01  -2.3350676e+00  -3.7896269e+00   1.6145899e+00  -1.0418959e+00
  -4.7781307e+00   8.9769062e-02   1.0829083e+01  -3.8785616e+00   3.3108291e+01   6.7958770e+00   7.1066107e+00  -8.0528269e+00  -4.3999388e+00   2.2086854e-01  -2.9486285e+00  -2.0780178e+00  -8.1960963e-01   4.1353515e+00  -3.8085400e+00   1.0047790e+00  -2.8236167e+00  -1.7179544e+01  -3.4450148e-01  -1.4837788e+01   6.5503237e+00  -5.0690287e+00   1.9266373e+00   4.9602577e+00   4.0077551e+00  -9.7353470e+00
   1.0003739e+01   3.6211975e+00  -3.0604613e+00   3.7093134e+01  -5.4518298e+00  -1.8718040e+00  -1.6127364e+01  -4.3170962e+00   2.9703097e+00  -1.7467623e+00  -1.5452696e+01   1.1648546e+01   5.0876959e+00  -5.0472607e+00   1.1489733e+01  -7.4403292e+00  -1.5637625e+00   1.0689325e+00  -5.7777364e+00  -2.6636017e+00   4.0890937e+00  -6.2308418e+00  -2.1309307e+00  -1.2060074e+00  -1.0318588e+00  -5.9560970e+00
  -2.8496501e+00   1.0951213e+00  -1.5372037e+01  -7.6829157e-01   1.9863272e+00   1.1820817e+00   3.6821762e+00  -1.3909973e+00  -2.4347726e+00  -2.9047521e-01   3.8508560e+00  -4.4225055e+00  -1.8144451e-01   2.4652956e+00   2.0641089e+00  -1.5544476e+00  -9.9300426e-02   9.8867175e-01  -4.0271345e+00  -3.0404107e+00   2.6597774e+00  -9.3094043e-01   1.3468591e+00   3.7987989e-01   5.8598013e+00   9.7877005e+00
  -3.7666075e+00  -7.6156281e-01  -3.3352483e+00   2.4719313e-01   5.9510511e+00   3.0682886e+00   7.3443287e+00   1.0789313e+00  -1.8382972e+01   1.5320452e+00  -5.3824983e+00   3.5721229e+01  -3.7076440e-01  -2.0073202e+00  -4.5192333e+00  -5.3565495e+00   2.6729831e+00  -2.0198845e+00  -5.8652755e-01  -3.3981574e-01  -2.3607547e+00  -5.3287640e-01   3.9984082e+00  -5.9490854e+00  -1.7475675e+00  -4.2070644e+00
   1.1423061e+01   9.2018982e+00  -7.3052206e+00  -1.9859460e+01  -2.4898499e+01   1.5165220e+01   4.3149146e+00   1.1162113e+01  -1.2278050e+01  -5.1299345e+00  -2.7516212e+00   1.2052377e+01   1.7946610e-02  -1.6090406e+00  -8.2809481e+00  -1.9658416e+00   1.3316013e-01   6.8998665e+00  -1.9781806e+00   1.0455031e+01  -2.9342096e-01  -2.8547792e+00   2.4081486e-02  -2.2907059e-01   8.6225738e+00  -2.7178986e-02
  -1.4985236e+01   1.4162373e-01   8.0465871e+00  -9.4935752e-01  -1.1667268e+01   4.2988919e+00  -7.0906745e+00   3.3993178e+00  -6.2151477e+00   7.9395105e-01   4.4164783e-01   2.7699601e-01   1.7803023e+00   3.4518535e+01  -6.8644856e+00  -6.2823249e-01   5.6939708e-01  -9.8407177e+00   2.4016049e-01   1.6100341e+00   5.2922059e+00  -4.0077998e+00  -9.6587368e-01   4.0137004e-01  -5.0223876e+00   6.4262013e+00
   1.5568077e+00  -1.5061574e+00  -3.4950351e-01  -1.0632412e+00   5.9089363e-01  -8.1711268e-01   6.9093100e-01   8.7788398e-01   6.9797022e+00  -6.3388007e-01   1.4269743e+00  -7.8047292e-01   1.1023023e-01   9.0699835e-01  -3.2896216e-01  -1.9964838e+00   1.3342756e+00   1.1199734e+00  -1.3174742e+00  -5.6478875e+00   9.5685359e-01   6.3924257e-02  -6.3406105e-01   6.9572726e-02  -1.8196207e+00   2.0872703e-01
   7.4755331e+00  -1.1874631e+01   8.4565510e+00   1.6862102e+00  -8.2175461e+00  -3.6444024e+00  -3.1587809e+00  -1.2044576e+00  -1.9358954e+00   3.3646368e-01   7.3034757e+00   1.2533611e+00   3.2229938e+01  -3.2114573e+01  -8.2211470e-01  -3.5403469e+00   4.0255426e+00   1.0413934e+01  -1.2679320e+01  -4.2275255e+00   1.2055691e+01   1.0947019e+00  -2.3852971e+00  -1.1271656e+00  -6.5531626e-01   1.2602757e+00
  -2.1224901e+02  -1.8143647e+01  -6.7039827e+01  -1.2599261e+01  -2.0892578e+02  -2.7862697e+02  -1.1348387e+02   8.8943784e+01   4.8551937e+01   2.6440645e+01  -1.5441043e+02  -4.3046992e+01   3.2935126e+01   5.4044364e+02  -1.3333547e+02  -1.9866931e+02   7.5214076e+01   3.5671916e+02   1.4140965e+02  -7.3920866e+01  -1.0198070e+02   7.7603152e+01   5.4068485e+00   1.0670267e+02  -1.0131765e+02   2.1770617e+02
   4.5819782e+01   1.1533221e+00  -1.4323861e+01  -3.0615512e+01  -2.3137363e+01   5.6478874e+00   3.1718590e+00   7.0174508e+00   8.4264903e+00  -1.7605303e+00  -2.8672270e+00   6.2058813e+00  -8.3438144e+00   1.4815723e+01  -1.2690996e+01   1.6529005e+00  -1.0892442e-01   1.0823155e+01  -5.8994706e+00  -2.7645369e+00   1.2725464e+00  -4.2397418e-01   2.4688639e+00   1.4504917e+00  -4.0234100e+00  -2.9712582e+00
  -8.1661536e+00   1.8587912e+00   4.6827336e+00   9.3057835e+00  -8.2210332e-01  -6.9662793e-01   1.6842639e+01  -5.5509443e+00   8.3410489e+00   2.1152199e+00   4.7392109e+00  -2.1349067e+00   5.9708431e+00   6.1098302e+00  -1.7162043e+00  -2.2438891e+01  -1.9124572e+00  -1.6944104e+01   5.6583575e-01   2.9097195e+00   3.4255039e+00   6.5874635e+00  -6.9553349e-01  -4.5050098e+00  -1.1531852e+01   3.7297906e+00
   2.5209011e+00   2.4935955e+00  -4.2040679e-01  -1.3741142e+00  -2.8834779e+00   2.1560216e+00   2.8743429e+00  -5.8597104e+00  -3.0633410e+00  -5.3095574e+00  -1.1518692e+00   4.7651133e-02   1.1768042e+00  -5.6919001e+00   2.4171432e+00  -3.2273717e+00   1.6961037e+00  -3.4940914e+00  -2.5396140e-01   8.1987220e+00  -1.0244477e+00   7.0719553e-02   2.0063703e+00   2.6809096e+00   5.5010675e+00  -8.8332913e-02
   1.2546773e+00  -5.9920945e+00   1.1363843e+01   3.6652678e+01  -1.6319169e+00  -3.1707234e+00  -1.3162848e+00   3.0383133e-01  -4.9808035e+00   5.2403783e-02   1.1024218e+01   1.8272991e+01   1.5636540e+01  -2.2717495e+01  -1.4943967e+01   8.7227019e+00  -3.1783010e+00  -4.2592865e-01  -1.6239128e+00  -1.1641997e+00  -1.4267427e+01  -4.1480090e+00  -2.0763240e+01  -6.8686311e+00   1.0600125e+00   2.8783064e+00
  -5.6430122e+00   1.0600265e+01  -1.4383349e+01   5.1683786e+00   2.3085252e+01   4.3054246e+00   2.9199408e+01   4.2654510e+00   2.4468905e+00   1.4247238e+00   7.8129422e+00   1.4408483e+00  -8.2414083e+00  -8.8771377e+00   1.0805102e+01  -1.0379090e+01  -7.4564454e+00  -1.1552392e+01  -1.1583880e+01  -3.3796448e-01  -1.2379841e+01  -3.0153883e+01   7.9935715e-01  -6.7586586e+00   2.5042604e+01   1.3794513e+00
   3.1093347e+00   1.1712573e+01   1.0438802e+01   2.7847379e+00  -1.9223965e+01  -9.0375134e+00   7.0346881e+00   6.0530773e+00  -8.7875184e+00   4.7776936e+00  -4.6673876e+00  -4.4824470e+00   1.7068698e-01  -7.7241140e+00  -6.0907744e+00   6.5668833e+00   2.9494796e+00   1.6698138e+01  -6.7596617e+00  -1.1938055e+01   2.4718406e+00   1.0970501e+00  -5.7689709e-02  -1.4444162e+00   1.6078122e-01   4.1753453e+00
   2.4791082e+00   7.2326342e+00  -8.7069491e-01  -1.0334759e+00  -7.7586459e+00  -3.0100240e+00  -1.1453566e+00  -2.4936375e+00  -6.5167228e+00   4.9995844e-01  -2.1041189e+00   1.8057460e+00  -1.2414148e+00   2.6517444e+00  -3.8381375e+00  -4.2368116e+00  -8.0733275e-01  -3.1242496e-01   2.6036410e+00   7.1104311e+00  -9.5605165e-01  -1.4446526e-01   1.7330770e+00   3.4457333e-02   1.0438451e+01  -1.2002712e-01
   2.7166255e+01  -6.2392231e-01  -1.8547442e+00   5.5624332e-01   1.4158278e+01  -3.1711368e+00  -1.6886353e+01   1.7627249e+00  -5.9274761e+00  -1.7246727e+00  -1.1552346e+01  -6.9390706e+00  -2.3807432e+00   1.7444144e+00   2.7260847e+00  -1.0475885e+01  -5.7827346e+00  -2.0974507e+01   3.7454746e+01   1.2199683e+01   4.0441905e+00  -1.4690706e+01   2.4748437e+00  -1.4355555e+00  -2.7249743e+00   2.8508984e+00
   2.1225003e+01  -4.1651574e+00   7.2705954e-01  -2.4615678e+00  -4.3140813e+00   2.3431417e+00  -1.5731967e+00   2.8679129e+00  -3.2006159e+00  -9.7895401e-01  -4.0286951e+00   3.9624320e+00  -1.4753462e+01  -3.4279241e+00   1.3065728e+00  -1.5502542e+00  -2.9611602e+00   8.4574920e-02   2.7987670e+00   5.6495056e+00   3.1262660e+00   5.4595071e+00  -1.6697300e+01   8.7531137e-01   8.6047098e+00   1.0902044e+00
  -5.5534625e+00  -6.6799610e+00   6.1266414e+00  -2.1098574e+00   8.1993694e+00  -3.0018956e-01   2.4940999e+00  -5.2727447e+00   5.0604660e-01   4.8899958e-01  -2.0701459e+00   5.8698832e+00  -5.4214146e+00   1.4911622e+01  -1.1062515e+01  -5.6483499e+00   8.9899990e-01   2.3635016e+00   5.9341561e+00  -6.3738819e+00  -1.0712085e+01  -7.4657690e-01   1.2552130e+00   1.1800099e+01  -1.8572605e-03   1.1130488e+00
  -2.0756572e+01  -3.8728112e-01   1.0404154e+01   4.1395979e+00  -1.8152044e+00  -2.8241180e+00   1.5103876e+00  -4.8786794e+00   1.2822015e+00  -2.4451638e-02  -1.4501369e+00  -3.2668588e+00  -2.8435621e+00   3.6722249e+00   3.4483277e+00  -7.2881873e+00   6.5429716e-01   1.0738246e+01   6.9558034e+00   9.2231230e-01  -2.1538891e+00   3.9220104e+00  -6.2047265e-01  -4.9807147e+00   8.5787452e+00  -2.9328455e+00
  -6.7401582e+00   2.7449010e+00   1.5139153e+01   1.3890335e+01  -1.7388480e+01  -8.1611991e+00  -7.8812944e+00  -6.5762231e-01   2.9431250e-01   7.1403558e-02  -6.3882256e+00   4.3931764e+00  -9.2816805e+00  -5.8732945e+00  -1.2561824e+01   6.3522751e+00   4.0654767e+00  -1.7907851e+01   1.4775903e+01  -4.0947946e+00   4.8192049e+00  -4.8854778e+00   2.3790936e+00  -1.3182633e+01   4.3010294e+00   4.1770057e+01
  -2.6464589e+00  -1.4892497e+01  -1.3296564e+01   6.0819384e+00  -3.1361035e+01  -8.8542090e+00   6.6994256e+00  -6.8482047e+00   2.0156945e+01   3.2902628e+00   1.8798341e+00  -1.8536129e+01  -4.2009782e-01   8.3734373e+00   2.1761923e-01   2.2487274e+00   1.1881917e+01   1.4835373e+01  -6.0248069e+00  -2.3695235e+00   1.9864700e+01  -5.2238334e+00  -1.2003749e+01   1.9170884e+01  -7.6754274e-02   7.8418749e+00
   1.0688537e+01   8.7829790e+00   2.3968697e+00   8.6505831e+00  -5.3924594e+00  -4.0781743e-01   3.0074400e+00  -5.6800012e+00  -1.3473168e+00   2.6130428e+00   3.4754871e+00  -2.1802897e-01   2.9449023e+00  -1.3801789e+01   5.3527376e-01   3.9848699e+00  -8.3001589e-01  -2.2252455e-01  -8.5604218e+00  -3.2460486e+00  -2.1108257e+01   3.2003420e+00   3.5570413e+00  -2.8364393e+00   1.5263068e+01  -5.4428438e+00
  -1.0468345e+01  -7.1198665e+00  -1.3256776e+00   4.6083147e+00  -1.7531511e+01   1.3565162e+00   5.0373126e+00   2.9293329e-01  -6.5045600e+00  -7.7580973e-01   5.3579851e+00  -2.2849011e+00   5.1204495e+01  -2.5260492e+01   1.6846495e+01   5.2967196e+00   5.7457398e-01   1.9304148e+01  -1.0104618e+01  -2.4299630e+01   3.4030379e+00   2.0840598e+00  -9.4605301e+00  -3.0399409e+00  -1.4000205e+00   4.1840877e+00
  -1.2023736e+00   1.0654584e+00   1.3504684e-01   1.2760203e+01   3.2418062e+00   2.9063131e+00  -1.7822789e+00  -2.3254507e+00   5.1848853e+00   3.8187739e+00   9.5862566e+00  -4.0114141e+00   6.7772356e+00  -1.1971857e+01  -3.1833127e+00  -4.2116415e+00   3.7175554e+00   2.6420745e+00  -4.1064876e+00  -1.3135216e+01  -7.8548662e-01   4.9138781e+00  -4.3725681e+00   7.4320158e+00  -1.1045534e+01  -2.0447169e+00
  -8.0860083e+00  -4.0258413e+00   2.4776024e+00  -8.7877993e+00   7.2531092e+00   1.0274862e-01  -2.0372088e+01   5.0332969e+00   8.4813255e+00  -5.0589284e+00  -3.9471695e+00  -9.3419004e+00   2.0571243e+00  -6.4746277e-01  -1.7062172e+00   5.1639548e+00  -8.3420664e+00   1.2387910e+00  -4.8775533e+00  -6.5157011e+00  -1.1764108e+00  -3.8604591e+00   2.0707126e+00  -5.1390888e-01   4.9127964e+01   4.2180722e+00
   1.4127257e+01  -1.1363835e+00  -3.4099054e+00  -2.4420981e+00  -1.8143418e+00  -2.0451011e+00  -5.6039497e+00  -1.5670983e+00  -3.2942098e+00   1.0233623e+00  -9.1387821e+00   3.6663076e+01  -4.6618862e-01  -2.0843172e+01   6.1166513e+00   7.2759149e+00  -2.1807356e+00  -5.2255241e+00   3.4175593e+00  -1.3832125e+00  -4.9872124e+00  -5.2735015e+00   3.8450124e+00  -5.5944478e+00   1.6386784e+00   2.2822341e+00
  -1.6192966e+01  -3.9327523e+00  -1.4983462e+01  -1.1461700e+01  -5.6292065e+00  -2.7582343e+00  -5.2199751e+00   3.2573502e+00  -8.6002616e-01  -2.5709977e-01  -1.0957842e+00  -8.4579942e+00  -2.9592008e+00   4.1283534e+01  -1.3563652e+01   1.6656369e+01  -3.3300604e+00   3.0372212e+00   6.3876236e+00   3.0586846e+00   1.0228522e+01   4.2159271e+00   2.7731170e+00  -2.5161696e+00  -6.3938828e+00   8.7063071e+00
  -7.3570117e+00  -5.3924267e+00   1.0613543e+00   2.2787555e+00  -7.5779563e+00  -2.7363675e+00   6.5571531e+00   2.7880041e+00   1.4246540e-01  -2.2585069e+00   3.2727610e+00   4.2568222e-01   2.1859918e+00  -5.5924984e+00   3.0317947e+00  -6.1214302e-01   3.1158578e-01  -1.1049157e+00   4.0103169e+00   1.0675020e+00  -1.6852432e+01   1.1889359e+01  -1.6577021e+00   2.5040623e+00   4.1701906e+00   5.4180117e+00
   2.5395119e-01  -2.1555212e+00  -1.8911303e-01  -3.6618269e-01   3.0820689e-01  -4.1796383e+00   4.7975164e+00   5.6072817e-01   3.0286204e+01  -4.8193701e+00   4.1725830e+00  -4.4157340e+00   3.2741498e+00  -7.6534350e-01   4.1745092e-01   2.5089784e+00   1.7991213e+00  -3.6753513e+00  -1.6419587e+00  -1.9935710e+01   1.1905905e+00   5.4467659e-01  -2.6620299e+00  -6.1613118e-01   4.5067417e-01  -5.1526659e+00
   6.2548605e+00  -7.1190184e+00   3.1273106e+00  -1.4134272e+00   1.1394490e+01   5.2853917e+00  -2.2642726e+00   1.6528634e+00  -1.1027516e+01   3.1071670e+00   3.4366511e-01   1.2413092e+00  -8.3091800e+00   8.2592316e+00   4.0723495e+00   2.4603018e+00  -3.2946881e-01   4.0344790e+00  -8.5591667e+00   2.6303258e+00  -1.2635187e+01   7.1085764e+00   2.6028794e+00  -8.1793927e+00  -1.1712446e+00  -2.5713024e+00
  -2.7100020e+01   3.0126529e+00   4.5081976e+00   4.7974936e+00  -6.0165213e+00   1.2869603e+00  -4.7461629e-01  -2.2068309e-01   2.6193586e+00  -9.3976903e-01  -6.5979942e+00   7.0673144e+00  -1.7675339e+00   2.0147459e+01   4.6093057e+00   2.8830169e+00   9.0078194e-02  -1.7687667e+00   3.1572081e-01  -1.6179085e+01   9.8420917e+00  -2.4385849e+00  -1.1966464e+00  -1.6494417e+00   3.0371838e+00   2.1412051e+00
   1.8810393e+00  -9.7031158e-01   5.7022456e+00  -4.5826163e+00  -1.7982503e+01  -2.9809625e-01   7.7722340e+00  -5.6758279e-01   9.7446903e-01  -2.8885767e-01  -7.9514793e-01  -2.1817426e+00   4.7733931e+00  -6.7454600e+00   1.4775007e+01  -2.5184931e+00  -1.0196204e+00   3.7434089e+00  -1.6015179e-02   3.1522892e+00  -6.4966123e+00  -1.0528898e+00   3.5954963e+00  -1.8638606e+00  -2.0581769e+00   3.0713760e+00
  -4.1498755e+00  -1.7710882e+01  -3.6230552e+00   6.0971292e+00   3.7622366e-01  -4.0244475e-01  -7.4426530e+00   8.1922623e+00   5.8166761e+00  -2.2587233e+00  -8.4322653e+00   8.6802155e+00   6.1870163e-01  -7.0114566e-01   4.5899980e+00   5.0783860e+00  -7.0657818e+00  -1.5045210e+00   4.8087710e+00  -6.2185993e-01  -2.6537080e+00  -3.6127225e+00   6.0272502e+00  -4.9870953e-01   1.9271111e+00   8.4367105e+00
  -8.9229769e+00   4.3174555e+00   1.8640368e+01  -4.6446264e+00   2.1751602e+01   3.8002762e+00   1.5388261e+00   1.0565757e+00  -4.6486518e+00   7.8527413e-01  -6.8960820e-01   2.6717913e+00  -9.0617637e-01  -3.1233987e+00   1.6984689e+00   5.0616935e-01   1.2043241e-01  -1.0384133e+01   7.5192750e+00  -1.7586809e+00  -1.8866434e+01  -2.0115441e+00   8.1456015e+00   6.7895877e+00  -3.4318344e+00  -1.9959512e+01
   5.2823696e+00   8.5855018e-01  -1.1057278e+01   5.3828781e+00   6.8916588e+00  -1.4186263e-01   2.5141062e+00  -1.0388386e+00   6.7495333e-02  -1.3191475e+00  -1.3548037e+00  -1.8124373e+00  -2.4385757e+00  -6.0435892e+00  -1.0013408e+01  -2.3981610e+00   1.5062376e-01   1.3429946e+00   7.8647853e+00  -3.6287005e-01   1.8381370e+01   4.9756944e-03  -6.1479166e+00  -6.1205724e-01   3.5231481e+00  -7.5186402e+00
  -2.5839569e+01   1.5816623e+01   1.2129996e+01   5.9215248e+00   1.9260901e+01   9.2803261e-02   5.3250025e+00   2.4970295e+00   6.9031689e+00   2.8462877e+00  -1.9879395e-02   7.0280010e+00   4.3630051e+00  -1.0108710e+01   1.3777965e-01  -5.9460316e+00   1.4939615e+00   2.5029705e+01  -6.6791014e+00  -1.0447690e+01  -8.0649881e+00   3.7837414e+00  -2.3045545e+00  -9.1211449e+00  -4.0195932e+00  -3.0050410e+01
   1.6337327e+00  -5.6688948e+00  -1.2957332e+01  -3.0721838e-01   1.1020588e+01  -2.6986395e+00   3.3252451e+00   1.6609896e+00  -6.2126386e-01   1.1246339e-01   2.2086054e+00   5.3980913e-01   4.7958781e-01  -4.6281549e-01   1.7087799e+01   1.2665702e+00   5.0381081e-01  -3.2369872e+00   1.3279831e+00  -3.5457528e+00  -1.5062083e+01  -1.2321645e+00   2.3364349e+00  -1.3055681e+00   1.3252448e+00   2.2626576e+00
   4.7217335e+00   5.4410613e+00  -2.4193691e+00  -8.4972207e-01  -1.6668547e+00  -3.1618403e+00  -3.9561067e+00  -2.8429301e-02  -4.8623946e+00  -1.3291919e+00   1.9835551e+00   5.4142475e+00   3.8980104e+00  -4.9902794e-01   2.0437819e+00  -2.9950732e-01   1.1553621e+00   2.1102341e+00  -5.0541871e-01  -2.5588923e+00   1.1348103e+00   1.9132254e+00  -3.3010671e-01  -1.9142903e+00  -4.7515406e+00  -6.7948305e-01
   4.0348792e+00   6.8858050e-01  -9.1121129e+00  -3.3537410e-02   1.3806731e+01  -5.9831204e+00   4.7444783e+00   4.9320194e+00   1.8355887e+00  -1.6580731e+00  -6.7285999e+00   1.5267717e+00  -2.5418972e+00   8.4531824e+00  -1.1194559e+01  -4.8194271e+00  -2.8110659e+00   4.8086873e-01   5.8093804e+00   3.9743873e+00   3.5311768e+00  -6.9589466e-01  -1.0480011e+00  -3.7933197e+00  -2.1139212e+00  -1.2889711e+00
   1.1593832e+01   1.1621487e+00   2.2522463e+01   3.2700452e+00  -2.8556991e+01  -8.4546423e+00   1.2038122e+00  -9.6378075e-01   6.0899111e+00  -3.6068031e-01  -7.1343346e+00  -1.1649621e+00   1.2604277e+01  -2.0674025e+01   8.3800471e+00  -1.6285182e+00   4.6502581e-01   7.5697683e+00  -3.1525464e+00   7.4284298e+00  -7.3485964e+00   3.0718005e+00   3.3781909e+00  -3.9111689e-01   5.2071728e+00  -1.4115760e+01
  -1.5142858e+01   1.7644134e+00   2.0756910e+00  -2.2910590e+00  -1.1923738e+01  -4.5351570e+00   2.4323988e+00   6.1706837e+00  -1.1202612e+00  -1.3773966e+00   2.7949836e+00  -3.9613654e-01   9.2692567e-01   7.4357604e+00   2.5873964e+01   1.7865640e+00   1.1601048e+00  -7.0951127e+00   5.2145080e+00  -4.8624836e+00  -1.5847317e+01   3.9523927e+00  -1.5932619e+00   1.1615606e+00   2.5076969e+00   9.2104103e-01
  -7.0353871e+00  -2.2157449e+00  -1.5570385e+01  -1.1591823e+01   1.2911319e+01   3.7931279e+00   4.4664357e+00  -6.2390713e-01  -4.0981757e-01  -3.8708554e+00  -6.4878325e+00  -4.1844051e+00   3.2547849e+00   1.2459593e+01   7.2561380e+00   9.5680832e-01  -7.5403310e-01  -9.9149097e+00   2.4064150e+01  -5.2684565e+00   1.0169851e+01  -1.0312716e+00   2.7080168e+00  -9.2973370e+00  -1.6683362e+01   1.2873642e+01
  -9.0229115e+00  -4.6700178e-01   1.0092432e+01   4.8053335e+00  -2.4522143e+01   2.9550613e+00  -4.1829464e-01   1.1241572e+00   1.0586422e-01   6.3768456e-01   9.3765030e-01  -1.8344263e+00  -5.3676653e-01  -6.1334426e+00   1.2117055e+00   3.6927576e+01  -1.3194263e+00  -9.1216950e+00  -2.2285082e+00  -6.7834846e+00   5.0513584e+00   5.1530496e+00   9.1965802e-01  -9.7171910e-01  -3.9043208e+00  -2.7156852e+00
   2.7024852e+01   1.4642032e+00  -6.2085702e+00  -1.2619734e+01   5.6123418e+00   1.8375960e+00  -3.4430968e+00  -3.0331407e+00  -2.4683238e+00  -1.6330187e+00  -3.8001013e-01  -2.6524894e-01   1.4528265e+00  -7.4732565e+00  -3.3686825e+00  -2.8075296e+00  -3.0717199e-01  -1.6471223e+00   2.9737116e+00  -2.4151062e+00   4.4963935e+00  -3.5029952e+00  -1.2326110e+00  -7.5212059e-01   2.1059978e+00   6.5787417e+00
   2.3369432e+00   1.0199142e+00  -8.3609050e-01  -3.4673812e+00   7.1792598e+00  -4.8723695e+00   4.8790655e+00   7.1288043e+00  -4.7701784e+00  -3.2804322e-01   2.0826940e-01   7.0621046e+00   2.2133985e+00  -2.3474287e+00  -1.2148890e+00  -2.6309946e+00  -1.3601645e+00  -4.8669911e+00  -5.6689720e+00   2.4350014e+01  -1.7559610e-01  -2.1931547e+00   2.6662856e-01   4.6828541e+00  -1.8858351e+01  -7.7317222e+00
  -4.9034228e+00   6.3397923e+00   8.3917098e+00   1.2830224e+01   8.4274926e+00  -5.6621675e+00  -1.3498131e+01  -7.5089922e+00   7.8733972e+00   1.4646395e+00   4.5591454e+00   1.3088546e+00   6.6252084e-01   3.3243743e+01  -2.4037744e+01   3.3903824e+00   1.0124300e+00   2.4725424e+00  -7.7836400e+00  -2.0293122e+01  -1.6130447e+01  -2.1031639e+00   5.7653637e+00   4.1862848e-01  -9.1461178e-01   4.6632434e+00
  -1.9026392e+00   9.7226842e-01   5.7122492e+00   3.1163480e+00  -2.8136675e+00  -2.6026612e+00   2.6781788e+01   1.3724596e+00   5.4465217e-01  -1.2420671e+01   2.3442991e+00  -9.6570593e+00   4.5308164e+00  -2.5981032e+00  -8.4845283e+00   5.4422014e-01  -2.0974666e+00   6.7672437e+00   5.7338508e+00  -1.4672649e+01   6.9770980e+00  -5.3986088e+00  -1.2937277e+00  -3.0524860e+00   2.6674280e-02   1.5677733e+00
  -1.0708088e+01   5.5228490e+00  -9.2412976e+00  -4.6208126e+00  -3.3312545e-02  -6.4517343e-01  -5.3743603e+00   3.2358522e-01  -1.3111861e+00   2.0373668e-01  -1.8328754e+00  -4.8161292e-01   8.2448346e+00  -5.3016460e+00   1.3394184e+01  -4.0218119e+00   5.0097411e-01   1.3499337e+00  -5.6250494e+00   5.0319259e+00   1.0293711e+01  -6.0447763e-01  -4.9992191e-01  -2.9149788e+00  -7.1441805e-01   9.0884817e+00
   6.7191838e+00   9.1317999e-01   2.5694211e+00   6.7779866e-01  -6.2729976e+00   2.0320406e+00  -6.9366387e+00   5.8618759e+00   5.0344354e+00  -2.8170318e+00  -8.3940592e-01  -5.5027592e+00   2.0205518e+00  -3.9922924e+00   3.7458404e-01   8.5667079e+00  -5.5796471e-01  -1.6112117e+00   1.6578596e+00   1.9486025e-01   5.9366338e+00   3.3557913e+00  -4.1561076e+00  -2.5327392e+00  -8.9200621e+00  -1.7918268e+00
  -4.4068312e+00   4.3916209e+00  -1.4444221e+01   1.7296790e+00   7.1566119e+00  -2.0034037e-01  -9.7267713e+00  -9.4408817e-01  -2.8573589e+00   8.4279233e-01   1.4576962e+00   5.3546639e+00   5.9749299e-01   1.3942549e+01  -9.3180030e+00  -2.0171013e-01  -1.5158456e+00   2.9217634e+00  -2.3166636e+00  -2.8720892e+00   1.7881800e+01  -4.1964926e+00  -1.6123986e-01  -3.3643913e+00  -1.9984771e+00   2.2389493e+00
   1.2685571e+01   2.7060300e+00  -1.3374966e+01  -5.7405435e+00   1.2380085e+01   8.6059472e-01   3.4638298e+00  -7.1548152e+00   1.4549702e+00  -1.7102496e+00  -2.1650682e+00   5.8074906e+00   1.4912709e+00   6.7594764e+00  -1.1530807e+01  -8.1601919e+00  -1.8585609e+00   6.7297985e-01   1.1913144e-01  -3.7134568e+00   3.5871221e+00   6.7638404e-01  -3.1931681e+00  -2.6276982e+00   2.9148387e+00   5.6544027e+00
  -9.1136816e+00   6.1333841e+00   1.3082865e+01   3.9383490e-01   7.3033843e-01   2.3521784e+01   2.0588855e+00  -9.2556420e+00  -9.7221105e+00  -4.6195996e+00  -1.0340739e+00   3.0908436e+01  -1.1784281e+00   5.2791414e+00   5.5403549e+00   1.7347058e+00  -5.7433007e+00  -1.3437180e+01   3.7375731e+00  -1.5192811e+01  -4.8668740e+00   1.9053743e+00  -2.6599487e+00  -2.0791354e+00  -8.3270252e+00  -7.7877899e+00
  -6.1394914e+00  -9.2083510e+00  -1.6633997e+00   6.0210126e+00  -3.8644323e+00   4.5977202e+01  -7.2614370e+00  -1.5169739e+00  -7.3825065e+00   1.1033709e+00  -1.3191970e+01   5.7206197e+00   9.3706502e-01   1.8234243e-02  -7.5817932e+00  -1.2606752e+01   4.8722333e+00  -1.2767621e+01  -1.0662050e+01   1.7365740e+01   7.3919038e-03   5.1932701e+00   3.6814560e+00   1.5778448e+00   2.2335835e-01   1.1344207e+00
   4.2750816e+00  -2.9332613e-01   5.2006353e-01   8.6335387e+00  -3.0635392e+01   2.6286849e+00   1.4247112e+01  -6.4435133e-01  -2.7614385e+00   1.1561109e+00  -2.7682446e+00   4.8396321e+00   3.1509663e+00  -1.7257527e+01   4.4465510e-01  -4.2869948e+00  -3.5565290e+00   5.7990787e+00  -5.4986366e+00  -1.1232281e+01  -7.8061744e+00   4.8952537e+00   2.7988893e+00  -5.8976439e+00  -3.0970699e+00   4.2360537e+01
  -1.2523833e+01   9.4161912e+00  -1.6935340e+00  -1.4472215e+01   2.6442785e+00   4.1340022e+00  -1.6278383e+01  -8.3188513e+00   2.3873395e+00   8.9270282e-01  -1.6160539e+01  -1.1455080e+01   5.2031006e+00  -1.2281155e-01   4.1952825e+00   4.3967893e+00  -1.2702083e+00   6.8148628e+00  -6.9803231e+00   8.1079381e+00   4.9539934e+00   3.4694984e+00  -4.0206500e+00   1.0742852e+01   8.7191419e+00   1.7236003e+01
   8.9063633e-01   2.3689429e+00   3.6713216e+00  -1.8641074e-01   1.0062339e+00   1.8627776e+00   6.9351963e+00   1.1218628e+00  -1.8136309e+01   1.3252328e+00   1.2018437e+00   6.0180763e+00  -9.9811487e+00   9.8627533e+00   4.2634338e+00   2.1711917e+00  -1.8365990e+00   9.8158405e+00  -2.0786416e+01   1.8122608e+00  -5.7902325e+00   1.5848294e+00   1.1735513e+01  -1.8410720e+00  -1.8458840e+01   9.3705013e+00
   1.3152926e+01  -1.1269263e+00  -2.7840943e+01  -2.0562565e+00  -4.2148685e+00  -4.0421817e+00  -4.4957635e+00  -4.5817616e-01   3.1786193e+00  -5.5712350e-01  -2.0713941e+00   4.3131936e+00   2.2846421e+00  -1.7486032e+01   1.8183570e+01   6.9282067e+00   8.4224188e-01   1.8903920e+01  -2.1477430e+00  -3.7107833e+00  -2.5602372e+00  -2.0111415e+00  -4.5798102e+00  -5.2500838e-01   7.8283525e+00   4.2523777e+00
   1.0802438e+01   3.0031574e+01  -1.6279177e-01  -4.2905113e+01   5.6397805e+00   9.6547673e-01   2.6534505e+00   2.8318202e+01  -4.9111571e+00  -4.9258849e+00  -1.8732519e+00  -2.3986064e+00  -2.7861751e-02   1.2838877e+00   7.0109192e+00   5.1658998e-01  -4.4386233e-02   2.8734214e+00  -6.6832876e+00  -7.9399849e+00  -1.4176516e+00   2.5034283e+00  -1.5904779e+00   2.5850978e-01  -9.1746280e+00  -8.8211719e+00
  -5.2953981e+00  -8.8152459e-01   1.3560666e+00  -3.0174204e+00   9.3977919e+00   1.6946452e+00  -3.7278706e+00   7.5940426e+00  -9.1165565e+00  -2.0246423e+00  -2.5073992e+00  -1.6868907e+00  -4.4591408e+00   8.9926384e-01  -1.7541562e+00  -7.0459453e+00   2.0911052e+00   1.0302603e+01  -1.2585993e+01   3.3788950e+01  -2.7851412e+00   5.5270189e+00  -6.6584258e+00  -3.4165334e+00   3.7601619e+00  -9.4446660e+00
  -1.0552429e+01   2.2958164e+00  -4.0466085e+00   6.9845427e+00   2.2749040e+00  -2.0409431e+00  -2.0867279e+00   5.4352235e+00   2.3563700e+00   2.1526545e-01  -5.5199312e+00  -8.6480407e+00  -2.1300649e+00  -1.2484926e+00   3.4095368e+00   6.9039311e+00   2.0505730e-02  -2.1418458e+01  -1.1415199e-01  -8.8525395e+00  -1.5177087e+01   4.8911727e+01   6.1390691e-01  -8.5850542e-01  -6.5794961e+00   9.8308842e+00
   2.9822946e+01  -2.5602759e+00  -5.8252304e+00   4.0348588e-01   2.0886710e+00  -1.3566753e+00  -6.2438955e+00   1.3044822e+00   3.6617013e+00   6.5789060e-01  -8.4914693e-02   3.1527627e+00  -3.3318056e+00  -3.0213933e-01   3.0326148e+00  -1.0287536e+00   9.0737870e-01   2.5232983e+00   2.5886785e+00  -5.4503101e+00  -2.1212857e+01  -3.0473425e-01  -1.1163270e+00  -1.6625041e+00   2.1363610e+00  -1.7949913e+00
  -8.6211699e+00  -5.9099807e-01  -4.2097940e+00   1.1955635e-01  -6.2102323e+00  -8.4862120e-01  -5.6572563e+00  -5.4103304e+00   2.1519156e+00   1.3352593e-01  -3.7967363e+00  -2.1905908e-01  -5.5002009e-02   1.4223428e+01   1.4277289e+01   3.7425381e+00  -5.2072170e+00  -5.8408961e+00   5.2771971e+00   9.9088735e+00   6.7489050e+00  -6.0282418e+00  -3.1139486e+00   4.0506895e+00   5.1134631e-01  -5.3118505e+00
   8.7562863e+00  -2.8974298e-01  -1.1397358e+01  -4.3558336e+00   1.0717097e+01  -9.4005997e-02  -1.1589690e+01   7.3858283e+00   1.2784451e+00   5.7693468e-01  -3.7989123e+00   1.5364648e+00  -3.8932424e+00   5.9674666e+00  -5.8122914e+00   1.3869211e+00   2.9151689e+00   4.2289098e+00  -3.1780139e+00   2.9468141e+00   1.1044477e+01  -1.3614467e+00  -4.5833773e+00  -1.7831077e+00  -1.2986858e+01   6.3912740e+00
  -2.1506207e+00  -2.1508976e+00   2.1697997e+00   3.9883083e+00  -3.3253266e+00   1.4060569e+00   2.1048298e-01  -6.5694054e-01  -1.4242130e+01   3.1782182e+00  -8.1251591e-01  -1.7954392e+00  -1.4234149e+00   7.5801001e-01  -9.3332088e-01  -3.4444495e+00   3.5064686e+00   3.8032569e+00  -2.6620904e+00   6.5311630e+00  -1.5045312e-01  -5.1602096e-03  -1.3482038e+00   2.5037792e+00   2.9407897e+00   4.1058300e+00
  -1.2879305e+00   4.1974557e+00  -4.9808947e+00  -4.0845265e+00  -9.2010688e+00  -1.2683611e+00   9.3222673e+00  -2.0147520e+00   6.0812581e-01  -5.1592532e-01  -3.5790734e-01  -3.0341750e+00   3.6076489e+00  -1.5380295e+01   8.6939100e+00  -7.3663137e+00  -7.1618787e-01   1.0992464e+01   6.4167050e+00   2.2720204e+00   3.2320414e+01  -1.7486508e+01  -2.5498370e+00  -5.2731156e-01  -7.9932438e+00   3.3089670e-01
   7.1893771e+00  -5.6219474e+00  -4.0346335e+00   8.5541366e-01  -3.5969626e+00  -2.2881177e+00  -9.4915997e+00   3.3125904e+00   4.1261430e+00   4.1788914e+00   2.7060201e+00  -1.0038066e+00  -1.2682010e+00   1.2329136e+00  -2.2896118e-01  -4.8679106e+00   2.6688164e+00   5.4984831e+00   1.5505359e+01  -4.1322984e+00  -4.3847558e+00   3.4495639e+00   7.4458463e-01   2.1834261e+00  -9.4606346e+00  -3.2514908e+00
   6.8402208e+00  -5.7104414e+00   1.4542097e+01   3.2672667e+00  -1.2096355e+01  -2.9134811e+00   8.2775765e+00   8.9772555e-01  -2.3483773e+00   2.3525385e+00  -2.6437728e+01   5.3773548e-01   2.0416949e+00   2.6028738e+01  -2.2671535e+01  -4.7183322e-01   6.8866162e+00  -8.8511505e-01  -1.0451415e+01   2.4302395e-04  -5.3300510e+00  -2.0537546e+00   7.4813892e+00  -1.6570351e-01   6.1842467e+00   6.2298995e+00
  -4.8179493e+00   3.2339720e+00  -1.8233604e+01   4.4902847e+00   1.5297648e+01  -6.5770101e+00  -4.1960322e+00  -4.9535250e+00  -3.0122583e+00   8.8744989e-01  -3.7788928e+00  -1.5248241e+00  -2.0600454e+00  -2.8090861e+00   1.1134700e+01  -2.3627676e+00   2.6378912e+00   7.2302456e+00   1.5310723e+00   6.4286150e+00   3.1819946e+00  -6.1198584e-01  -3.7087721e+00  -4.7777522e+00   2.5212021e+00   4.8598873e+00
   2.2423099e+00  -6.4020608e+00   2.5443555e+00  -5.5488953e-01  -3.0763017e+01   5.2465466e+00   3.2526800e+00   4.4489785e+00  -1.2756092e+00   1.0995117e+00   2.3880630e+00   7.2375117e+00  -1.7662855e+00  -1.1954357e+01   1.8577408e-01  -2.6597552e+00  -1.6442597e+00   7.9135103e+00   3.7843974e+01  -1.4303034e+01   6.8122507e+00  -3.0516866e-01  -5.3809499e+00  -2.3757393e+00  -2.5721621e+00   7.4729844e-01
   1.3078541e+01  -3.5306089e+00  -4.5054326e+00   6.8004764e+00  -5.1196605e+00  -5.0857138e+00   2.2758396e+00  -2.4028628e+00  -1.6034422e+00   1.0902754e+00   4.6313641e+00   2.0404842e+00   2.6760740e+00  -6.8902916e+00   6.8494159e+00  -6.7628795e-01  -8.6817888e-01   1.4669739e+00  -1.4044144e-01  -4.8106528e+00  -1.1833213e+01   3.9678203e+00   6.0535951e+00  -4.5633585e+00   2.6054891e+00  -1.5133358e+00
   3.4740635e-01   1.5195220e-01  -3.2378160e+00   6.2880482e-01   2.2923175e+00  -4.0114634e+00  -6.0991481e-01  -1.0101975e+01   4.3674446e+00   7.6626943e-01  -8.4784218e+00   7.3280008e+00  -1.8010155e+01   3.2713072e+01  -1.2170620e+00   4.0806248e+00   6.7213509e-01  -6.9881195e-01  -4.7885160e+00  -1.1793779e+01  -3.7772806e+01  -1.0784674e+01   4.7706492e+01   4.2219717e+00   3.0197000e+00   3.2403582e+00
   9.6654860e-01   4.9821456e+00  -1.3508390e+00   2.0843426e+00  -3.3459003e+00  -1.2201292e+00   5.4217384e+00  -1.1707785e+00   4.1805378e+01  -4.4951223e+00  -8.3849030e+00  -2.2429793e+01   2.6344959e+00  -4.4073805e+00  -3.2262275e+00  -5.6248692e+00   1.6909124e+00   9.6218359e-01  -4.5510931e+00  -1.3910731e+01   3.2774010e+00   5.9080929e-01   1.8806662e+00   1.0530095e+00   6.4708868e+00   2.9519783e-01
   8.9210643e+00   1.1499442e+01  -2.8378617e+00   8.8245566e+00   1.7346234e+00   3.3494689e+00  -7.4992914e+00  -1.7148710e+00   5.0072646e+00  -1.7296739e+00  -1.7205281e+00  -2.0701975e+00  -5.3768833e+00  -1.4933389e+01   9.5106342e+00  -5.3838646e-02  -6.5203656e-01  -5.5223794e+00   2.8164872e-01   1.6509575e+00  -3.3928909e+00  -8.3816420e+00   4.4775563e+00  -6.5737208e-01  -4.8200338e+00   6.0888093e+00
  -1.9516523e-01   4.4315557e+00  -1.8290263e+00   1.3412302e+00  -1.1272047e+01  -2.0264448e+00   2.4352869e+00  -1.6081841e+01  -2.2242514e+00  -1.2866830e+00  -1.7577301e+00  -3.1157598e-01  -1.6342566e+00   3.9189468e+01  -1.8854917e+01  -4.3701002e+00  -4.9911469e+00   9.5375276e+00   1.9449455e+00  -5.5827261e+00  -2.6373693e+00   7.1208165e+00   1.7566535e-01   1.3669458e+00   7.3830647e-01   6.7703799e+00
  -5.8456470e+00   1.5944184e+00  -1.0862671e+01   1.8069843e+00  -2.0437941e+00   7.5088351e-01  -2.5696044e+00  -5.3943473e-01  -1.8697712e+00   2.8881666e-01  -2.9671335e+00   3.6503536e+00   2.9185513e+00   1.0154561e+01   1.1900240e+01  -2.6664244e+00   3.0548127e+00  -2.3767022e+00   6.0793736e-01   2.4281410e+00  -1.1294749e-01  -4.4338551e-01  -2.4407362e+00  -1.5737123e+00  -3.1495418e+00   3.0866779e-01
   1.4182827e+01   8.4403378e+00  -1.1164779e+00   5.6679636e+00  -2.8085295e+01   4.0649131e-01  -4.5156483e+00  -2.6341921e+00   4.3108081e+00   4.4713561e-01   1.9211542e+00  -7.6991027e-02   1.0397656e+01   2.8027076e+01   2.3285509e+00  -1.0669268e-01  -3.3724245e-01  -8.6149552e-01   2.5621673e+00  -2.8784309e+00  -3.0389873e+01  -1.2328484e+00  -9.6786134e+00   5.3751343e+00   1.0930440e+00  -3.2455542e+00
   9.7114042e+00   3.1226707e+00   1.0449720e+01   7.5337209e+00   2.9557158e+00   1.6229610e+01   1.1519166e+01  -9.2018201e+00  -4.3725673e+00   2.9012751e+00  -1.4015784e+01   5.6082293e-01   1.3447326e+00   4.2097822e+00   5.7719099e-01  -4.5899568e+00   3.2023523e+00   6.1016068e+00  -1.9538595e+01  -1.4227624e+01  -6.1020797e+00   8.7863075e-01   3.6297354e-01   4.6194048e-01  -4.6492700e+00  -5.4321619e+00
   1.7941318e+00   1.9015648e+00   1.2918395e+00   1.4420067e+00   5.4942334e+00   5.9844184e+00  -4.2036302e+00   1.0026300e+01   5.1002660e+00  -3.2321601e-01   2.0106622e+00  -1.9286820e-01   5.4782093e+00  -1.3692610e+00  -1.8533208e+01   8.4864135e+00  -5.7389324e+00  -6.1679896e+00  -2.0447678e-01   3.7838138e+00  -3.3473390e+00  -1.8474531e+00  -3.7056366e+00   5.2127911e-01  -6.5523111e+00  -1.1433370e+00
  -4.5521627e-01   2.1425100e+00  -5.8658327e+00   5.7287344e-01   1.2434072e+01  -6.5203365e+00   8.0015013e-01   7.1025583e-01  -4.0293282e-01  -8.4443725e-01  -1.0990601e+00  -2.6448263e+00   1.1306074e+01   1.5776937e+01  -5.3177626e+00  -5.3827450e+00   5.1895612e-01   1.2603471e+01   7.1256097e+00  -2.3649304e+01  -2.3007031e+00   3.6524397e+00  -4.7228062e+00  -3.2053464e+00  -7.5693131e-01  -4.4663878e+00
  -1.3157981e+01   5.2690237e+00  -4.5965872e+00  -1.0016431e+00   1.6509442e+01   6.1362905e+00   5.7423385e-01  -5.2096690e+00  -1.0365631e+01   9.5029311e-01  -5.0111323e+00   4.8955923e+00  -8.3012116e+00   3.6976097e+01  -1.2357495e+01  -3.1718320e+00   1.4163423e-01   1.7410843e+01   1.0850097e+01  -1.2261956e+01   6.2703008e-02   5.5879291e-01  -6.8819864e-01  -1.6897649e+01  -2.5555362e+00  -4.7493074e+00
   1.4171740e+00  -2.0313838e+00   2.0514592e-01  -1.3734988e+00   1.4473911e+00  -6.9822380e-01   2.9541841e-02   7.4028155e-01   1.2660530e+00  -8.3944125e-02   3.4661754e+00   4.4651206e+00   5.9074243e-01  -1.7195480e+00  -1.2796682e+00  -1.8944217e+00   9.6963268e-01   1.7183471e-01   5.1309211e-01  -6.0648982e+00   9.3592278e-01   7.5121527e-01  -1.8790745e-01  -1.0087411e+00  -2.5730451e+00   1.9451672e+00
  -2.2274351e+01   1.1114743e+00  -4.1111902e-01  -8.5549557e+00   4.3565444e+01  -7.9358110e+00   7.9975287e+00  -6.3451597e+00  -9.2543956e-01   8.7123843e-01  -7.2358568e-01   1.3566017e+00   1.1690878e-01   5.6366646e+00  -2.9897734e+01   9.6412570e+00  -1.0081826e+00   5.8110483e-01   8.6431121e+00  -2.9224122e+00   4.2049999e+00  -4.7142111e+00  -3.7799121e+00   2.6794284e+00   3.3863781e+00  -2.8822329e-01
   1.6491785e+01  -5.9141282e-01   1.2279569e+01  -1.4507170e+00  -9.6396614e+00  -1.0053842e+01  -2.4498744e+01   3.7971361e+00  -2.4467992e+00   5.4804867e-01   4.4984015e+00   6.2970997e+00  -5.5968639e+00  -3.5260858e+01   1.9603207e+01   1.5745515e+01  -4.0867646e+00  -1.1038104e+01   2.3732666e+00  -1.5555216e+01   1.7197655e+01   1.6517969e+00   1.6917854e+00   2.9518450e+01  -4.0661081e+00  -7.4262309e+00
  -1.5402886e+01   7.2417010e+00   4.2617520e+00  -1.6911687e+00   1.2772243e+01   1.8069011e+00  -6.1041210e+00   6.6799315e-01  -7.3496181e+00  -2.2243303e+00   1.0515936e+00   1.0061725e-01   1.7746196e+00  -7.1414362e+00   4.7722060e+00   5.5718618e+00   4.7370399e+00  -1.3007052e+01   8.4664458e+00   9.2237449e-01  -3.4928575e-01  -3.8636929e-01  -1.5385550e+00  -1.7843945e+00   2.9910609e+00  -1.7169451e-01
   1.6334136e+01   1.1678942e+00  -7.6549127e+00  -1.0599698e+01   2.7706873e+01  -7.4169911e+00  -1.3225709e+01   5.3479150e+00   3.3077079e+00  -1.1134525e-01  -9.7049553e+00  -1.2914475e+01  -4.1471625e+00   9.9018459e+00   6.3407283e+00   1.3412147e-01  -7.8043109e+00  -1.6962731e+01   1.3344222e+01   8.0444336e+00  -1.9294377e+00   1.4181879e+00   3.1775906e-01   4.8088900e+00  -2.8809224e+00  -2.8071748e+00
  -3.9603484e+00  -2.9180430e+00   4.0983752e+00  -8.4665595e-01   2.3127448e+01  -1.3433290e+01  -7.7710884e+00  -2.1112311e+00  -1.9251304e+00  -1.1218891e+00   1.2172519e+00   4.0492994e+00   3.5482618e+00   1.4510898e+01  -1.3456665e+01  -4.5487014e+00  -9.4675156e-01  -6.1386072e+00   3.8617959e+00  -5.7671111e-01   5.9483939e+00  -2.9029110e+00  -1.7652983e+00  -9.5973555e-02   3.0379073e+00   1.1128896e+00
  -3.9234617e+00  -8.3763417e+00  -3.0551264e+00  -2.5370394e+00  -4.8359772e+00   5.5809409e+00   3.4115740e+01   1.8115254e+00   6.2732306e+00  -1.8307070e+00   4.4675998e+00  -8.8929810e+00   6.7731876e-01  -8.6894208e+00   1.0904030e+00  -5.7612569e+00   2.2327572e+00   9.9610777e+00  -2.5704435e+00  -2.1380995e+01  -2.4949075e-01   1.9383931e+00   4.0608446e+00   3.7506668e+00   4.0987742e+00  -8.0093907e+00
  -7.3876975e+00  -9.6903208e+00   1.6722183e+00   4.8676809e+00   6.3277750e+00   1.3171965e+01  -1.8240247e+01   1.7268318e+00   7.2164115e+00  -3.5732588e+00  -3.0223172e+00   1.5351518e+01   4.7859277e+00   4.5213859e+00   1.0451682e+00   7.3522756e+00  -4.5768172e+00   4.9349735e+00   2.4989685e+00  -2.1504323e+01  -2.0613648e+00  -6.9444490e-01   4.2746179e+00   2.0638499e+00  -3.0179804e+00  -8.0728048e+00
  -3.5201281e+01  -2.4749518e+00   5.2649299e+00   1.1164118e+01  -1.8925406e+01  -5.8656528e-01  -6.6919624e+00   8.7525379e+00   6.6325367e+00   1.8024536e+00  -3.4507817e+00  -4.4966951e+00   4.1954309e+00  -3.7522645e+00   1.9710363e+01   3.3970068e+00  -9.9635929e-01   4.8989623e+00  -9.5987067e-01  -6.6495008e+00   9.2274893e+00   5.9386799e+00   1.0524852e+00   2.3479041e+00  -3.0247431e+00   2.8176974e+00
   2.5690274e+00  -1.1240982e+01  -8.0381630e-01   1.7977299e+00  -8.0494488e+00  -6.2233016e+00   6.3318340e-01  -1.0642294e+01  -2.6529782e+00   2.2458815e+00   6.0939225e+00   2.4322470e+00   5.1342095e+00   1.8875099e-01  -9.5393990e+00   3.6796328e+00   8.4772786e-02   7.2979402e+00  -1.1965905e+01  -4.5437904e+00   1.0324878e+01  -3.5466462e-01  -4.3877078e+00   4.0034039e-01   3.1197068e-01   2.7206045e+01
   5.7211728e+00   4.9999181e+01  -3.3474195e+00   3.5445328e+00  -8.0192262e+00  -4.0276113e+00   1.2838401e+01   1.1306053e+00  -1.1365268e+00  -1.8275763e+00  -1.3129367e+01  -3.7140738e+00  -1.9074039e+00  -3.0603629e+01   6.1262472e+00   1.1569936e+00  -3.1414859e+00   1.4062834e+01  -2.4328543e+00  -6.9778179e+00  -1.7237900e+01   2.4016537e+00   1.3722715e+00   6.7062145e+00  -4.2402752e+00  -3.3234761e+00
   1.1230848e+01   1.3688327e-01   1.2272911e+01  -3.2544487e+00  -2.7092596e+01   4.8643802e+00   4.7552034e+00   5.5716556e+00   9.9579986e+00   1.5128656e+00  -1.3273508e+01  -1.0557885e+01  -9.9372462e+00  -4.0041726e+01  -1.0460407e+01   5.6023628e+00  -8.4895534e-01   2.7809529e+01   8.9340759e+00   3.7232593e+01   1.1783512e+00  -1.9414512e+00  -2.0293347e+00  -3.3016114e+00  -1.8216678e+01   9.8982967e+00
  -1.9619234e+01   1.3589024e+01  -1.0738378e+01  -2.3869476e+00   1.6529593e+01  -5.3618703e+00  -1.2905149e+00  -1.9187971e+00  -1.5156431e+00  -1.9878326e-02   3.0610672e+00   3.6819817e+00   5.1065130e-01  -1.3044530e+00  -4.4206798e+00  -8.7916813e+00  -2.3243890e+00  -2.9935838e+00   6.7563696e+00   1.0109802e+01  -6.2515436e-01   3.1633389e+00  -9.3591018e-01  -2.6167919e-01  -6.7126887e-01   7.7829636e+00
   1.3194431e+01   4.1960980e+00   1.7804218e-01  -2.0034639e+01  -7.9938037e-01   8.5773816e-01   2.4874728e+00   4.1698924e+00   9.4066218e+00   7.1679958e+00  -1.7598645e+00   9.4743075e+00  -9.3866608e-01  -8.8057185e+00   6.2986127e+00   2.4994842e+00   3.0656605e+00   3.5459441e+00  -2.7093842e+00  -1.4612811e+01  -3.4791774e+00  -2.7231698e+00   1.1694435e+00   1.9734882e+00  -6.6935072e+00  -7.1353553e+00
  -1.2568850e+01   4.9433691e+00   7.0608092e+00   3.2192174e+00  -1.5629548e+00  -3.5906640e+00   2.0712042e-01   1.2684968e+00   1.3589461e+01   4.3423475e-01   2.8071074e+00  -1.8969575e+00   4.2002259e+00  -1.8818283e+01  -2.7332495e+00   2.6942181e+01   1.1355531e+00  -9.2190097e+00   4.4933034e+00  -9.3751378e+00   8.0615934e+00   9.5218363e-01   3.5349779e+00  -1.7649103e+00  -2.0998793e+01  -3.1222191e-01
  -1.0785245e+01  -5.7497767e-01   4.3094985e+00   4.3110057e+00  -2.0424368e+01  -9.1676230e+00  -5.0118290e-01  -2.3552637e+01   5.9013638e+00   6.1862654e-01   3.3530641e+01  -1.6338300e+00   2.6816395e-01   1.5919665e+01   5.7519310e+00   3.2545986e-01  -2.7078209e+00  -1.0126514e+00   7.9364180e+00   6.1848836e+00  -9.0599960e-01  -1.7575075e+00  -6.4814875e+00  -4.0118471e+00  -8.6958157e+00   7.1403701e+00
  -6.7099714e+00   1.4458445e+01   3.8957088e+00   3.2099545e+00   5.1781729e+00   3.3620931e+00  -3.3608106e+00  -9.6719485e+00  -6.7814731e+00  -8.8873152e+00   1.2374338e+00  -4.9330072e+00  -9.9819316e-02   5.9090344e+00   5.8616387e-01  -2.5845786e+00   1.0813372e+00   7.3471489e-01  -5.8020679e+00   3.8125446e+00   3.3738584e-01  -2.7077739e+00  -8.8909245e-01  -1.2881483e+00   6.7581699e+00   3.1671141e+00
   1.7870449e+01  -1.9392933e+01  -7.3742837e+00  -4.4544195e+00  -1.1147076e+01  -2.5925707e+00  -1.7144656e+01   1.9727710e+01  -6.3334366e+00  -9.6096389e-01   4.3446967e+00   5.5213191e+00  -1.8170313e+00   1.5199505e+01   4.1711448e+00   5.2263759e+00   3.2247395e+00  -1.6504111e+00  -4.1835480e+00  -9.3600718e+00   1.2659395e+01   4.1540469e+00  -4.9287070e+00  -4.8639920e+00   5.6804943e-01   3.5178641e+00
  -2.1608298e+01  -1.7738705e+01   4.6189273e+00  -4.4212736e+00   3.3770595e+00   3.7915664e+00   1.5891014e+01   6.8572075e-01   4.3894493e+00   6.9926548e-01  -8.9047610e+00   4.7707902e-01   4.4320901e+00   4.0769937e-01   7.2015999e+00   4.5774242e+00   1.7164463e+00   9.6621049e+00   3.6392647e+00  -1.6548810e+01  -1.8209290e-02   1.1793436e+01  -5.9427103e+00  -1.3365823e+01   1.0031913e+01   1.2008045e+00
  -8.5008754e+00   6.7174381e-01   4.3265786e+00   2.8424048e+00   3.2561341e+01  -7.2643577e+00  -1.4735012e+01   8.1664415e+00  -6.4110205e+00  -1.4928074e+00  -6.8519326e+00   4.7829191e-01  -6.6740178e-01   2.4843809e-01   1.0039299e+01   3.1769951e+00  -4.3003786e+00   6.2977961e+00   9.8668716e+00  -1.2883587e+01   4.0131893e+00   5.3374992e+00  -3.0213606e+00   2.4149811e+00  -6.7142956e+00  -1.7593528e+01
  -2.9817492e+00   3.6087561e+01   1.2062856e+01   7.3957584e-01   5.9733860e+00  -3.5424725e+00  -4.0803811e+00   2.3582304e+00   8.4630733e+00  -3.2201575e+00  -9.0895079e+00  -8.1701410e+00  -4.0309775e+00   1.2191457e+01  -2.2635900e+00   3.9765975e+00  -4.2746990e+00  -6.7885875e+00  -2.7012535e+01  -4.8103270e+00  -6.4826077e-01   1.4764522e+00  -3.7928034e+00   2.0387536e+00   6.5638865e+00  -7.2098431e+00
   1.5583567e+00  -4.5892580e-02  -2.0607380e+00   2.4938418e+00  -9.8840047e-01   1.5787801e+00  -3.1097499e+00   2.7731105e+00   1.8489003e-01  -7.5624917e-01  -1.0218223e+00   7.8495261e+00  -3.9684040e-01  -7.4311858e+00   1.2713337e+00   7.8530548e+00  -1.0159612e+00  -1.0526402e+00  -1.7503619e+00   7.6661481e-01   5.6843277e+00  -5.1171663e+00  -4.6160088e+00  -4.6716621e-01  -4.5914563e+00   2.4163480e+00
  -2.1505660e+00  -5.5363347e-01   3.9967672e+01   2.2997120e-01  -4.9980860e+01  -4.2533567e+00  -6.0121804e+00   3.3823307e-02  -5.3382627e+00   3.4892479e-01   5.2315771e-01  -5.3548722e-01   6.1449109e+00  -7.4557181e+00  -3.7281773e-01  -2.8626586e-01   1.2151008e+00   1.5012344e+01   2.6552232e-01  -4.5724402e+00   1.4555312e+01   1.1900130e+00  -9.4583305e-01  -3.2689436e+00  -3.7012187e+00   9.9334528e+00
   2.7236348e+00  -4.3432516e+00   5.8036858e+00  -1.0402252e+01  -1.0887627e+01  -1.1962837e+01  -2.0934302e+00  -4.3376420e+00   1.5049600e+01   3.9095368e-01   9.0692237e+00  -2.8439453e+01   8.9783760e-01  -3.6664875e-01  -2.2373576e+00  -9.5911314e-01   1.5073297e+00   2.8127317e+00   7.2736204e-01   5.2088956e+01   3.1884412e+00   1.1772163e+00  -1.0199646e+01  -5.8593986e+00   1.9819118e+00  -5.3433795e+00
   6.6475195e+00   4.0868680e+00   3.3997520e+00  -2.7606723e+00  -1.3192651e+01   1.7061533e+00   3.0324793e+01  -6.1587709e+00  -7.1374124e+00   1.6272366e+00   6.3699826e+00   3.8339674e+00  -5.7153869e-01   2.4866095e+00   3.5828294e+00   3.5854693e+00   3.3830052e-01   8.6172200e+00  -4.5683161e-01  -1.4851656e+00  -3.3497212e+00   4.5327110e+00  -2.5060177e+00   2.8876293e+00  -3.8154976e+01  -8.2855761e+00
   3.0233003e+01  -1.9224710e+00  -8.2428862e+00  -1.2955719e+01   2.1548489e+01   8.3696351e+00  -1.0682528e+01  -4.3983430e+00   1.3861597e+00   4.5260636e-01   6.1108619e+00  -8.3397683e-01  -1.5995701e+00  -1.9762820e+01   2.1623544e+00   2.0145008e+00  -1.9606771e+00   6.3708746e+00  -3.9575937e+00  -2.7011646e-01  -1.3631281e+01   4.9432430e+00   5.3745364e-01   5.6126145e-01  -1.4323249e+00  -3.0261083e+00
  -1.3148801e-01  -7.7009056e+00   1.4301579e+00  -7.5972746e+00  -1.2889052e+01   2.5982227e+00   1.7498036e+01  -5.2666308e+00   1.8533974e+00  -4.6953605e+00  -7.7093258e+00   6.5452733e+00   1.9611506e+00   4.3362019e+00   1.7931736e+00  -1.5667562e-01  -7.0598852e-01  -4.3422718e+00  -2.1988014e+00   2.1449159e+01   4.3740244e-01   2.3234415e+00  -6.9314928e-01  -2.7992784e+00  -8.6217868e+00   3.3358519e+00
  -2.6075197e+00  -3.6115534e-01   1.9276759e+01   4.8381605e+00  -1.8871697e+01  -2.4294747e+00  -1.6412179e+00  -4.3050733e+00   2.1542301e+00  -4.6429419e-01   1.0675633e-01  -1.3750622e+00   4.5730083e+01  -6.1071016e+01   1.0973596e+01  -4.4855293e+00   6.9225738e-01  -1.0866972e+01   3.6964997e+00   1.4763399e+00   1.2444642e+01  -1.2356003e+00   6.1751263e+00  -5.7418792e+00   8.4316460e-01   7.0525961e+00
   1.0041663e+01  -1.7025661e+00  -1.3889782e+01  -2.0053077e-01   1.1776619e+01   8.3657923e-02   2.1181547e+00   5.6286239e+00   3.8680194e+00   3.7580090e-01  -1.2355327e+01  -1.3385691e+00   1.5269345e+00  -1.3354493e+01   7.7523357e-01   1.8773927e-01   3.8111755e-01   9.3269095e+00   9.2961543e+00   4.0456603e+00   2.5041366e+00  -2.8009184e+00  -2.0553438e+00   3.4829933e+00  -3.7654452e+00  -1.3939515e+01
   1.3298030e+01   3.8935759e-01   1.2458504e+01  -1.7379762e+01   5.2691885e+00   1.2035096e+01   1.1038187e+01  -6.6728523e+00   4.4438110e+00   4.6012909e-01  -1.1993066e+00   4.8909323e+00   4.0624048e+00  -6.4501698e+00   1.5628649e+00  -2.9535779e+00  -6.9604847e+00  -5.2774077e+00   7.2247939e+00  -7.6952458e+00   9.7976632e+00  -2.9804303e+00  -4.5457569e-01  -9.7468922e+00  -1.5674131e+01  -3.5098462e+00
   5.8051928e+00  -3.6811904e+00   2.7829071e+00  -1.6764939e+00  -9.3895199e-01   2.2835111e+00  -8.7525431e+00  -7.2908020e-01  -2.2567383e+01   1.9540694e-03   1.5555492e+00   2.0550732e+01   1.1602317e+00  -6.4228154e-01   1.3792201e+00   4.9994694e+00  -2.2685411e+00   1.4603406e+00   5.4295199e+00  -3.7162991e+00  -2.3441447e+00  -1.1821331e+00  -1.1667011e+00   5.0691734e-01  -2.0567178e+00   3.8007871e+00
  -1.1556578e+00  -1.2355946e+00  -1.1056226e+00  -2.9963907e+00  -6.9623027e+00  -1.0355919e+01   3.8957913e+00  -1.0567270e+00   5.2906132e+00  -1.4224377e+00   2.3638339e+00  -5.0299684e+00   6.3235793e-01   1.1140453e+00   1.0026894e+00  -1.2584226e+00  -3.7847574e+00  -2.5188415e+00   6.7968680e+00   5.3131590e+00   4.2211595e+00   2.2662724e+00   1.8021061e+00   3.7491705e+00   2.9184433e+00  -2.4903110e+00
   1.6903579e+00  -1.2479792e+00  -6.4165886e-01   6.2642010e-01  -7.7862404e+00   4.0403609e-01   5.3499506e-01   8.2400668e-01   4.1500545e+00  -6.5794313e-02   1.8323383e+00   1.5677901e+00  -6.5459084e+00  -6.2841028e+00   1.8492731e+00   3.0133242e+00   1.6763366e+00  -6.0227308e+00   3.1585568e+00  -2.9256778e+00   3.2811585e+00   9.7776654e-01   2.3595329e+00  -1.5740366e-02  -4.1164282e+00   7.6987180e+00
   6.0806806e+00   7.9821872e+00   1.7063457e+00   1.0159744e+01   1.4004094e+00   6.5435387e+00   2.2452762e+01   4.1601535e-01  -8.3461733e+00  -1.8374546e+00  -2.4531684e+00   3.7097977e+00  -4.6103753e+00   1.0404144e+01  -4.6385505e+00  -1.0593534e+01  -9.2466324e+00   1.1391811e+00  -9.7703668e+00   6.8626825e+00  -5.7873053e+00  -5.2712266e+00  -6.2683062e-01   5.6583477e-01  -2.3408100e+01   7.1884964e+00
   8.1386221e-01   4.2610868e+00   4.0124981e+01   5.9538789e+00  -2.9347781e+01   2.7577914e+00  -6.5907895e+00   1.7271353e-01  -7.2867227e+00  -4.4734435e+00   3.0990487e+00  -5.0891778e+00   7.7555067e-01   5.4100912e+00  -6.4737009e+00   1.0169467e+01   8.5470496e-01  -1.0910965e+01   2.2191714e+00   3.0488050e+00  -8.5390801e+00   5.5620211e-01   4.1379460e-02   1.9825912e+00   1.4430089e+00  -4.9926895e+00
   4.3309095e+00  -3.1555361e+00  -5.2009716e+00  -1.0098904e+01  -1.7278868e+00   4.5956883e+01  -1.8696022e+01   2.7487284e+00   1.9905303e+00   4.5120456e+00  -2.3799178e+00  -1.3369923e+01   1.0207836e+00   2.1153271e+00   5.0284645e+00  -3.0914307e+01   2.0136107e+00  -1.4980679e+01  -4.9365005e-01   3.5723762e+01  -2.6122004e+00   4.9377762e-01   2.7322875e+00  -2.1515864e+00  -4.6981401e-01  -2.4125789e+00
   2.8722344e+01   3.9432990e+00  -5.9013112e+00   4.4081670e+00   7.6062794e+00  -2.8410983e+00  -7.6575666e+00  -2.0270508e+00  -4.4488419e-01  -1.0902610e+00  -5.9235975e+00   3.9198698e+00  -1.9072430e+00   2.6468117e+00  -1.7762904e+01   3.0209438e+00   3.0084816e-01  -3.1189393e+00   1.1857689e-01  -1.6830529e+00   3.0809285e+00  -5.6307565e+00  -1.0109399e+00   2.7154249e+00   5.2724395e+00  -8.7508462e+00
   1.3769339e-01  -1.5267969e+01  -7.2314518e+00  -6.2024255e+00  -5.5940928e+00   5.8216378e+00  -1.1456051e+01   4.0378152e+00   4.3256947e+00  -8.5209028e-01   4.3481121e+00  -4.2313127e+00  -1.7270059e+00  -1.6196274e+01   2.6045644e+01  -3.9217470e+00  -4.1371036e+00   5.4201027e-01   9.4841240e+00   8.2122678e+00   6.4703600e+00  -4.6458428e+00   4.7535233e-01   4.5361381e-01   6.3583578e+00   4.7413381e+00
  -1.3064994e+01   4.8758274e+00  -2.2425893e+01   1.7527407e+01   1.3756768e+01   4.8528935e+00   1.4197467e+01  -6.9226853e+00  -7.6283368e+00   2.4780953e+00  -7.3710953e-01  -7.5536214e+00  -8.8175301e+00   1.2702259e+01  -2.5066521e+00  -1.2953071e+01  -2.2936108e+00   5.2861235e+01  -2.7965658e+00  -8.3728105e+00  -7.6239705e+00   7.4959702e+00  -4.0522269e+00  -1.0465462e+01  -1.0042907e+01  -2.4635908e+00
  -9.6520296e+00  -1.9614257e+00  -3.8426934e-01  -1.4416656e+00   3.6101097e+00   6.0507373e+00   5.5423068e+00  -3.3163611e-01   2.8459357e+00  -1.9665692e+00   4.0503345e+00  -6.0426854e+00  -1.2466434e+00  -1.5294391e+01   1.6628691e+00  -6.7787614e-01  -1.0427598e+00  -1.8594674e+00   4.6548629e-01   4.5185601e-01  -9.8452498e+00   3.2636476e+01   9.9740988e-01   8.9966408e-01  -7.5445006e+00   6.6540348e-02
  -6.7134936e-01  -3.8312393e+00   4.4840649e-01   1.1186906e+00  -9.9133615e+00   6.1036077e-02   7.6742755e-01  -2.9462229e+00  -2.3918517e+00  -5.3934621e-01  -1.1590667e+00  -1.7485950e+00   6.5738558e+00  -4.5664766e-01   1.4873016e+00   5.3800661e-01   2.2977274e-01   6.5794380e-01  -2.4099805e+00  -3.5334160e+00  -1.5712347e+00   3.4093955e-01   2.4193209e+00  -1.0490637e+00   3.4072967e+00   1.4165372e+01
   3.0584891e+00   5.3112755e+00  -1.0706573e+00   1.7866100e+00  -3.0961980e+00  -9.9012587e-01   3.8132793e+00  -1.0275314e+00   7.3951778e-01  -6.7160460e-01  -2.5035346e+00   8.0271492e+00  -4.1200288e-01  -7.2708825e+00   1.3359731e+00   7.3787498e+00  -5.5060464e-01  -7.2645335e-01   2.9624197e-01  -7.9789667e+00  -2.7480306e+00  -3.6763178e-01   9.1449364e-01  -4.3845122e-03   5.4868936e-02  -3.2898136e+00
  -1.1942731e+01   6.7656379e+00  -3.9835728e+00  -1.3168507e+00   2.8674379e-01   4.5323367e+00   3.4833929e+00  -2.3484305e+00  -4.8354398e+00  -1.2535507e+00  -3.7569852e+00  -8.3545741e-01  -4.5874586e+00   7.3198813e+00  -7.8695931e-01   1.2309163e+00   7.2178618e-01   1.1177503e+01   4.2732612e+00  -2.2251380e+00  -3.0616742e+00   3.2612090e+00  -2.1546646e+00  -6.0251163e+00   5.6643791e-01   5.4751438e+00
   4.0752547e+00   6.0365679e+00  -8.5726094e+00  -9.0639056e+00  -9.8192587e+00  -5.4082778e+00  -5.2423417e+00  -5.3621885e+00  -5.6681548e+00   1.4057511e+00  -3.7932070e+00   3.3200303e+00   1.8325809e+00  -4.2797186e+00  -1.5310098e+00   1.1012179e+01   3.9197350e-01   1.6844582e+01   8.0592806e+00   6.7235012e+00   1.2120267e+00   2.0702943e+00  -8.6278274e-01   2.3613990e+00  -5.7619801e+00   4.8945966e-02
   9.3242997e+00   8.8948567e+00  -4.8623410e+00  -1.1757115e+00   1.5627297e+00   3.6519840e+00   1.7658461e+01   6.4339202e+00   2.0874116e+00  -3.0906738e+00   3.0640693e+00  -8.8364006e-01  -3.5044796e+00  -2.0801724e+01   8.2063519e+00  -9.4957705e-01  -1.7407563e+01   1.8039017e+00  -2.6746425e+01  -3.6200687e+00   3.8485974e+00   1.5076427e-01  -4.2001863e+00   1.3930366e+00   1.6578994e+01   2.5631712e+00
  -2.0890175e+01   1.7645667e+00  -4.6811007e+00   7.8055706e+00   6.6399815e+00   1.7494857e+00  -1.0287075e+00  -2.6474004e+00   1.7607067e+00  -1.9221904e-01   2.4403908e+00  -2.5739098e+00   3.7748673e+00   1.7392515e+01   3.2284506e+00  -4.1190838e+00   1.0542812e+00  -2.0041596e+01   1.0473042e+01   1.0156494e+01   2.9168902e+00  -3.7154529e+00  -1.5350079e+01  -1.2747211e+00   3.0176621e+00   2.3264139e+00
   1.7227074e+00  -4.1419006e+00   4.4912170e+00  -7.3640199e+00  -2.6266463e+00   5.5779694e+00  -1.4520257e+01   5.6910054e+00   1.2903246e+00  -3.3018014e+00  -3.2710620e+00  -7.6518979e+00  -6.8462508e-01  -1.0755410e+01  -3.3102296e+00  -2.9649966e+00  -5.1339410e+00   7.4239037e+00   5.5114041e+00   3.4218253e+01   2.4591579e+00  -2.5655707e+00   8.0239838e-01  -1.7169527e+00   3.8634694e+00  -3.0348720e+00
   3.1565241e+00  -4.5205672e+00  -2.4272317e+00  -2.3818774e+01  -1.4488225e+01  -1.0407538e+01   2.6178225e+01  -3.0359298e-01  -6.3104770e+00  -6.6173306e-01  -1.2405702e+01   1.5463045e-01   3.1507050e+00   8.0629827e+00  -7.7818304e+00  -1.4299729e+01  -7.9167197e+00   1.8398004e+01  -1.4641392e+01   1.1937897e+01   2.0888824e+00   4.1581087e+00   2.6494596e-01  -1.5518053e+00  -7.8710219e+00   5.1875280e+01
   1.5607918e+01   1.4199052e+00  -2.5616023e+01  -1.9162380e+01   2.8816614e+00   8.9037393e-01   1.3445379e+00  -2.5537485e+00   3.5833478e-01  -1.5262409e+00   8.3053951e+00   1.4317932e+00  -4.6155292e-01  -1.6260530e+01   2.0071666e+01  -7.4179227e+00  -1.4911857e+00   1.0074516e+01  -3.9361929e+00   1.0161166e+01   1.8162263e+01  -1.6136969e+01  -1.1804209e+00  -4.3218274e-01   4.5357234e+00   9.1101049e-01
  -9.0326251e-01   8.6486363e+00  -5.0250192e+00  -2.0186404e+00  -1.5846841e+01   4.7770931e+00   7.1077966e+01  -6.7865424e+00  -7.9897550e+00   2.0344407e+00  -2.5694028e+00   2.3325581e+00  -5.4565974e+00   7.7210830e-02   1.6064436e+01  -9.2503776e+00   9.1239012e+00   1.3414112e+01  -1.4487270e+01  -1.7283623e+01  -3.3355990e+00  -1.7778372e+00   2.6827238e+00  -8.5477357e-01  -2.9995025e+01  -6.6600965e+00
   4.5871434e+00   2.4875267e-01   4.4667884e-01  -1.3005855e+01  -8.0152283e+00   1.0084005e+01  -3.1556661e+00   7.5798880e+00   8.2420442e-02   8.8904537e-02  -1.1503395e+01   5.4209105e+00   1.9234848e+00  -1.4320471e+01  -4.4321929e+00   5.6912914e-01  -4.4921486e-01  -4.1833619e+00  -4.6249299e+00  -4.4986923e+00   2.8805120e+00  -3.0912674e-01   2.7521099e+00   3.4588543e+01  -6.1801064e+00   3.4497879e+00
   1.7544305e+01   5.6835796e+00   7.7288831e+00   5.6131284e+00  -2.8586627e+01   8.3116846e+00   5.1976279e+00  -2.1356329e+01   6.5529630e+00  -3.0385606e+00  -1.1364446e+00   2.8066910e-01  -2.0359774e-01   6.1035615e+00  -6.2942868e+00   4.7365418e+00  -2.7615538e+00   6.5687635e+00   1.1278776e-01  -2.0459034e+01  -3.3890713e+00   4.6740070e+00  -1.3916841e+00   2.4945645e+00   9.1584372e+00  -2.0978055e+00
  -5.4020712e+01   1.2252421e+00   1.2504680e+00  -3.0168371e-01   4.8007099e+00  -4.1556029e-01   5.2600834e-01  -3.9377104e+00   2.2233718e+00  -5.3652436e-01  -4.8477267e+00   1.2967691e+00   1.6548156e+01   3.4699596e+01  -2.9581416e+00  -3.1201691e+00   2.3878836e-02  -6.3334504e+00   7.0775310e+00  -5.3573892e-01   1.4267265e+01   2.7466517e-02  -8.7595600e+00   2.1707126e+00   2.7991129e+00  -3.1605024e+00
   4.3683719e-01   2.0567410e+00  -4.7497489e-01  -2.0617053e+00   1.3537719e+00  -5.8591722e+00   2.7205688e+00  -5.7370316e+00   9.5348709e+00   2.2953446e+00  -9.8405139e-01  -2.6789943e-01   3.5377843e+00  -1.6464982e+00   6.1166326e-01  -3.6869007e+00   2.2405742e+00   3.0868660e+00  -6.1716797e+00  -2.7556276e+00   5.5941863e-01  -2.3775197e+00  -2.3347429e+00   2.6089628e+00   4.5167282e+00  -1.2079021e+00
   4.9352795e+01  -3.0671837e+00   2.9504179e+00  -7.7925946e+00  -1.5453001e+01  -4.4130440e+00  -1.1071355e+01   8.9320460e-01  -2.6669057e+00  -2.1844524e+00   1.3374045e+01   6.8992174e+00  -4.5318666e-01   2.1779754e+00  -6.6835422e-01   5.7393290e+00  -2.5940617e+00   5.5935299e+00   8.4475826e+00   7.0204348e+00  -1.7399717e+01  -8.3346704e+00  -1.4178955e+00   7.5335951e-01  -1.5055748e+01  -1.0621377e+01
  -1.7812268e+00   5.2873784e-01  -1.1472828e+01   8.6196691e+00   3.0194157e+01  -1.1067549e+01   6.7721867e+00  -2.5093446e+00  -1.7063831e+01  -5.9619198e-01  -8.5772130e+00   5.6448752e+00  -1.1053935e+00  -3.8583720e+00   8.0249438e+00  -1.0126615e+01  -9.7000116e-01   3.9008207e+01   2.0150477e+01  -5.1668079e+00  -7.9745552e+00  -6.8272197e-01   5.0054329e+00  -5.0885828e+01   2.7126612e+01  -1.7240638e+01
